{"learner":{"attributes":{"scikit_learn":"{\"_estimator_type\": \"classifier\"}"},"feature_names":["last_email","weekend","same_day","avg_email_sent","opened_email","row_num","discount%","max_purchase_discount","last_pos_email","avg_days_between_purchases"],"feature_types":["int","int","int","float","int","int","float","float","int","float"],"gradient_booster":{"model":{"gbtree_model_param":{"num_parallel_tree":"1","num_trees":"300"},"iteration_indptr":[0,1,2,3,4,5,6,7,8,9,10,11,12,13,14,15,16,17,18,19,20,21,22,23,24,25,26,27,28,29,30,31,32,33,34,35,36,37,38,39,40,41,42,43,44,45,46,47,48,49,50,51,52,53,54,55,56,57,58,59,60,61,62,63,64,65,66,67,68,69,70,71,72,73,74,75,76,77,78,79,80,81,82,83,84,85,86,87,88,89,90,91,92,93,94,95,96,97,98,99,100,101,102,103,104,105,106,107,108,109,110,111,112,113,114,115,116,117,118,119,120,121,122,123,124,125,126,127,128,129,130,131,132,133,134,135,136,137,138,139,140,141,142,143,144,145,146,147,148,149,150,151,152,153,154,155,156,157,158,159,160,161,162,163,164,165,166,167,168,169,170,171,172,173,174,175,176,177,178,179,180,181,182,183,184,185,186,187,188,189,190,191,192,193,194,195,196,197,198,199,200,201,202,203,204,205,206,207,208,209,210,211,212,213,214,215,216,217,218,219,220,221,222,223,224,225,226,227,228,229,230,231,232,233,234,235,236,237,238,239,240,241,242,243,244,245,246,247,248,249,250,251,252,253,254,255,256,257,258,259,260,261,262,263,264,265,266,267,268,269,270,271,272,273,274,275,276,277,278,279,280,281,282,283,284,285,286,287,288,289,290,291,292,293,294,295,296,297,298,299,300],"tree_info":[0,0,0,0,0,0,0,0,0,0,0,0,0,0,0,0,0,0,0,0,0,0,0,0,0,0,0,0,0,0,0,0,0,0,0,0,0,0,0,0,0,0,0,0,0,0,0,0,0,0,0,0,0,0,0,0,0,0,0,0,0,0,0,0,0,0,0,0,0,0,0,0,0,0,0,0,0,0,0,0,0,0,0,0,0,0,0,0,0,0,0,0,0,0,0,0,0,0,0,0,0,0,0,0,0,0,0,0,0,0,0,0,0,0,0,0,0,0,0,0,0,0,0,0,0,0,0,0,0,0,0,0,0,0,0,0,0,0,0,0,0,0,0,0,0,0,0,0,0,0,0,0,0,0,0,0,0,0,0,0,0,0,0,0,0,0,0,0,0,0,0,0,0,0,0,0,0,0,0,0,0,0,0,0,0,0,0,0,0,0,0,0,0,0,0,0,0,0,0,0,0,0,0,0,0,0,0,0,0,0,0,0,0,0,0,0,0,0,0,0,0,0,0,0,0,0,0,0,0,0,0,0,0,0,0,0,0,0,0,0,0,0,0,0,0,0,0,0,0,0,0,0,0,0,0,0,0,0,0,0,0,0,0,0,0,0,0,0,0,0,0,0,0,0,0,0,0,0,0,0,0,0,0,0,0,0,0,0,0,0,0,0,0,0,0,0,0,0,0,0],"trees":[{"base_weights":[-8.845935E-3,-8.0883855E-1,1.8900377E0,-1.931931E0,-2.8641668E-1,1.6589642E0,4.004531E-1,-1.9683701E0,3.4554517E-1,1.115135E0,-6.457856E-1,-3.6664152E-1,1.7264572E0,-1.0731707E0,-3.9893886E-1,1.7521962E0,6.3689214E-1,-7.190204E-1,3.9472157E-1,1.8002374E0,1.132368E0,-3.8713405E-1,3.616712E-1,3.8930103E-1,1.4596001E0,-1.6911452E-1,1.110501E0,-9.9095047E-1,-2.123252E-1,1.8234245E0,1.1147724E0,4.716066E-1,1.2442933E0,5.544625E-1,3.6949044E-1,-1.6922203E0,1.164637E0,1.5109254E0,7.5070614E-1,-1.3519692E0,-7.582423E-1,8.5073695E-2,-6.3640124E-1,3.7630072E-1,1.6613613E0,6.962908E-2,1.4321489E0,-1.842477E-2,1.606674E-1,1.3073548E0,2.41179E-2,-3.6596256E-1,3.4967414E-1,-3.9136535E-1,-5.0626004E-1,1.4717572E0,3.9447647E-1,3.5630924E-1,1.2883424E0,-5.116977E-1,1.5791429E0,-1.8495544E0,-1.1521078E0,4.058453E-1,-8.9365757E-1,-8.671649E-1,3.0948237E-1,4.208789E-1,-8.0193627E-1,1.3228372E0,3.424649E-1,1.2061594E-1,3.4069368E-1,2.8839368E-1,7.2354203E-1,1.6061606E-1,-2.3931925E-1,3.193973E-1,1.0733389E-1,-2.2153898E-1,2.6980534E-1,1.2154116E-2,3.474203E-1,-3.0893388E-1,2.493774E-1,1.893913E-1,3.3820662E-1,-8.6254254E-2,-3.8798675E-1,8.3922856E-2,-2.714012E-1,2.2512297E-1,4.2664617E-2,-1.8536837E-1,3.6260217E-1,-3.4360635E-1,-9.5794395E-2,4.0235627E-2,2.639081E-1,-3.6664152E-1,2.3736838E-1,-2.0564604E-1,4.5199834E-2,8.061582E-2,2.9816696E-1,-4.3846093E-2,2.2290693E-1],"categories":[],"categories_nodes":[],"categories_segments":[],"categories_sizes":[],"default_left":[0,0,0,0,0,0,0,0,0,0,0,0,0,0,0,0,0,0,0,0,0,0,0,0,0,0,0,0,0,0,0,0,0,0,0,0,0,0,0,0,0,0,0,0,0,0,0,0,0,0,0,0,0,0,0,0,0,0,0,0,0,0,0,0,0,0,0,0,0,0,0,0,0,0,0,0,0,0,0,0,0,0,0,0,0,0,0,0,0,0,0,0,0,0,0,0,0,0,0,0,0,0,0,0,0,0,0],"id":0,"left_children":[1,3,5,7,9,11,-1,13,-1,15,17,-1,19,21,-1,23,25,27,-1,29,31,-1,-1,-1,33,35,37,39,41,43,45,47,49,51,-1,53,55,57,59,61,63,65,67,-1,69,-1,71,-1,-1,73,-1,-1,-1,-1,75,77,79,-1,81,83,85,87,89,91,93,95,97,99,101,103,-1,-1,-1,-1,105,-1,-1,-1,-1,-1,-1,-1,-1,-1,-1,-1,-1,-1,-1,-1,-1,-1,-1,-1,-1,-1,-1,-1,-1,-1,-1,-1,-1,-1,-1,-1,-1],"loss_changes":[9.63596E3,2.6180037E3,4.5438477E1,1.9232959E2,1.5355354E3,1.4941467E2,0E0,3.0928223E1,0E0,1.8846417E2,4.6679883E2,0E0,2.4666016E1,1.0850456E2,0E0,1.2296265E1,1.3646556E2,3.2506567E2,0E0,6.553833E0,4.5900803E0,0E0,0E0,0E0,3.767984E1,2.7215198E2,3.1281555E1,1.2801697E2,1.0419713E2,1.7779541E0,4.428402E0,2.271325E0,4.0409393E0,1.01406746E2,0E0,1.8622559E1,1.6331398E1,4.0595856E0,1.2682911E2,5.7612305E1,1.4794806E2,1.0417504E2,5.9930557E1,0E0,2.5372314E-1,0E0,2.1218586E0,0E0,0E0,3.3576584E0,0E0,0E0,0E0,0E0,1.2485457E1,5.0857697E0,3.2681484E1,0E0,3.3773674E1,9.002927E1,3.562317E0,2.1018555E1,1.3944989E2,1.3374495E1,7.703815E1,2.9894943E1,4.2862793E1,8.2891495E1,6.879558E1,3.0302124E0,0E0,0E0,0E0,0E0,4.852037E0,0E0,0E0,0E0,0E0,0E0,0E0,0E0,0E0,0E0,0E0,0E0,0E0,0E0,0E0,0E0,0E0,0E0,0E0,0E0,0E0,0E0,0E0,0E0,0E0,0E0,0E0,0E0,0E0,0E0,0E0,0E0,0E0],"parents":[2147483647,0,0,1,1,2,2,3,3,4,4,5,5,7,7,9,9,10,10,12,12,13,13,15,15,16,16,17,17,19,19,20,20,24,24,25,25,26,26,27,27,28,28,29,29,30,30,31,31,32,32,33,33,35,35,36,36,37,37,38,38,39,39,40,40,41,41,42,42,44,44,46,46,49,49,54,54,55,55,56,56,58,58,59,59,60,60,61,61,62,62,63,63,64,64,65,65,66,66,67,67,68,68,69,69,74,74],"right_children":[2,4,6,8,10,12,-1,14,-1,16,18,-1,20,22,-1,24,26,28,-1,30,32,-1,-1,-1,34,36,38,40,42,44,46,48,50,52,-1,54,56,58,60,62,64,66,68,-1,70,-1,72,-1,-1,74,-1,-1,-1,-1,76,78,80,-1,82,84,86,88,90,92,94,96,98,100,102,104,-1,-1,-1,-1,106,-1,-1,-1,-1,-1,-1,-1,-1,-1,-1,-1,-1,-1,-1,-1,-1,-1,-1,-1,-1,-1,-1,-1,-1,-1,-1,-1,-1,-1,-1,-1,-1],"split_conditions":[1E0,2E-1,1E0,1E1,5.2E1,2.5E-1,4.004531E-1,2E0,3.4554517E-1,1.3E1,1E0,-3.6664152E-1,4.56E1,1E0,-3.9893886E-1,5E0,1.3E1,1E0,3.9472157E-1,2.36E2,4.9E1,-3.8713405E-1,3.616712E-1,3.8930103E-1,4E0,3.4E0,3.3E1,8E0,5.9833332E1,1.72E1,3.18E2,3.0447369E1,1.632E2,2.5E-1,3.6949044E-1,1.25E0,7.5E0,2.2E1,3.3E1,4.8E1,1.4E2,4.5E0,1.18E2,3.7630072E-1,2.4E1,6.962908E-2,2.3666666E1,-1.842477E-2,1.606674E-1,7.37E2,2.41179E-2,-3.6596256E-1,3.4967414E-1,-3.9136535E-1,3.7272727E0,4E1,3.2E1,3.5630924E-1,2.2E1,5.8333335E0,1.575E1,8.4375E0,8.9E1,1.025E1,1E0,4.8E1,9.8166664E1,6.1E1,8.661539E1,1.18E2,3.424649E-1,1.2061594E-1,3.4069368E-1,2.8839368E-1,9.18E2,1.6061606E-1,-2.3931925E-1,3.193973E-1,1.0733389E-1,-2.2153898E-1,2.6980534E-1,1.2154116E-2,3.474203E-1,-3.0893388E-1,2.493774E-1,1.893913E-1,3.3820662E-1,-8.6254254E-2,-3.8798675E-1,8.3922856E-2,-2.714012E-1,2.2512297E-1,4.2664617E-2,-1.8536837E-1,3.6260217E-1,-3.4360635E-1,-9.5794395E-2,4.0235627E-2,2.639081E-1,-3.6664152E-1,2.3736838E-1,-2.0564604E-1,4.5199834E-2,8.061582E-2,2.9816696E-1,-4.3846093E-2,2.2290693E-1],"split_indices":[0,3,2,7,5,9,0,8,0,5,1,0,3,5,0,5,8,4,0,8,3,0,0,0,8,9,5,9,3,3,8,9,3,9,0,9,3,5,8,8,5,9,5,0,8,0,3,0,0,5,0,0,0,0,3,5,9,0,8,9,3,3,5,3,2,8,9,8,9,5,0,0,0,0,5,0,0,0,0,0,0,0,0,0,0,0,0,0,0,0,0,0,0,0,0,0,0,0,0,0,0,0,0,0,0,0,0],"split_type":[0,0,0,0,0,0,0,0,0,0,0,0,0,0,0,0,0,0,0,0,0,0,0,0,0,0,0,0,0,0,0,0,0,0,0,0,0,0,0,0,0,0,0,0,0,0,0,0,0,0,0,0,0,0,0,0,0,0,0,0,0,0,0,0,0,0,0,0,0,0,0,0,0,0,0,0,0,0,0,0,0,0,0,0,0,0,0,0,0,0,0,0,0,0,0,0,0,0,0,0,0,0,0,0,0,0,0],"sum_hessian":[6.3412266E3,4.4619834E3,1.879243E3,1.4157448E3,3.0462388E3,6.194977E2,1.2597454E3,1.4022449E3,1.349995E1,6.212477E2,2.424991E3,1.1249958E1,6.0824774E2,4.1249847E1,1.360995E3,2.6524902E2,3.559987E2,2.3597412E3,6.5249756E1,5.39248E2,6.899975E1,3.1999882E1,9.249966E0,1.5599942E2,1.09249596E2,1.3199951E2,2.2399918E2,1.5349944E3,8.2474695E2,5.199981E2,1.924993E1,1.074996E1,5.8249786E1,3.3499878E1,7.574972E1,6.149977E1,7.049974E1,1.0449961E2,1.1949956E2,5.997478E2,9.352465E2,4.852482E2,3.3949875E2,3.7499863E2,1.4499947E2,6.249977E0,1.2999952E1,4.2499843E0,6.499976E0,5.4999798E1,3.249988E0,1.0999959E1,2.2499916E1,4.9749817E1,1.1749956E1,4.9749817E1,2.0749924E1,4.3999836E1,6.0499775E1,4.7499825E1,7.199973E1,1.6949937E2,4.302484E2,9.724964E1,8.379969E2,9.199966E1,3.9324854E2,4.5749832E1,2.937489E2,2.2499916E1,1.2249955E2,3.9999852E0,8.999967E0,4.349984E1,1.1499957E1,3.9999852E0,7.7499714E0,4.324984E1,6.499976E0,7.9999704E0,1.2749953E1,1.6499939E1,4.3999836E1,2.999989E1,1.7499935E1,1.2249955E1,5.974978E1,1.0499961E1,1.589994E2,4.9499817E1,3.807486E2,1.9499928E1,7.774971E1,8.2849695E2,9.499965E0,2.7749897E1,6.424976E1,3.562487E2,3.6999863E1,1.1249958E1,3.4499874E1,2.4074911E2,5.2999805E1,3.9999852E0,1.8499931E1,3.4999871E0,7.9999704E0],"tree_param":{"num_deleted":"0","num_feature":"10","num_nodes":"107","size_leaf_vector":"1"}},{"base_weights":[-1.1159685E-3,-6.6121125E-1,1.572561E0,-1.6181123E0,-2.2669306E-1,1.3692684E0,3.3424565E-1,-1.6443106E0,2.811375E-1,8.763611E-1,-5.2867305E-1,-2.945308E-1,1.4266007E0,-8.4892136E-1,-3.3343518E-1,1.5201534E0,5.071192E-1,-5.903824E-1,3.3011737E-1,1.5244073E0,1.0203012E0,-3.2423636E-1,3.0652913E-1,3.215243E-1,1.1866137E0,-2.5005078E-1,8.477261E-1,-8.0057424E-1,-2.0145057E-1,1.5383269E0,9.924243E-1,1.1078044E0,4.193287E-1,3.8420632E-1,1.5609312E0,-1.4840672E0,9.650987E-1,1.2046313E0,5.2315515E-1,-5.0230324E-1,-9.867171E-1,-2.8037643E-1,1.1103598E0,3.085772E-1,1.5317109E-1,9.286094E-2,2.628198E-1,1.174387E0,6.084455E-1,-8.693388E-2,6.766174E-1,-2.6935586E-1,2.641173E-1,1.8430881E-1,3.2755584E-1,-4.8990004E-2,-1.6049491E0,3.654684E-1,1.2708116E0,1.5507826E0,1.0417125E0,-3.127717E-1,1.2052903E0,-1.5056608E0,-2.6170892E-1,-1.0750704E0,-3.9875865E-1,-7.8525484E-1,-8.53017E-2,1.3379575E0,4.092216E-1,7.892231E-1,1.2622224E0,9.070716E-1,-2.4385367E-2,1.174172E0,-1.2836846E-2,-3.3300564E-1,-2.0612724E-1,2.0492898E-1,-2.5246972E-1,2.840788E-1,1.5230854E-1,1.3077E-1,3.2427832E-1,1.1068651E-2,2.6892743E-1,-2.525034E-1,2.1177661E-1,3.0333158E-1,1.7276517E-1,-3.3941215E-1,-2.7471057E-1,-7.211876E-2,6.807945E-2,-3.0765957E-1,-1.8535458E-1,3.1123573E-2,-1.3715339E-1,-3.3048907E-1,-9.539813E-2,4.9327325E-2,-8.724088E-2,1.5737724E-1,2.911589E-1,-2.104467E-1,2.819049E-1,8.058333E-3,2.0549019E-1,2.115037E-1,3.0909446E-1,6.1606884E-2,2.4049337E-1,1.2594797E-1,2.8183842E-1],"categories":[],"categories_nodes":[],"categories_segments":[],"categories_sizes":[],"default_left":[0,0,0,0,0,0,0,0,0,0,0,0,0,0,0,0,0,0,0,0,0,0,0,0,0,0,0,0,0,0,0,0,0,0,0,0,0,0,0,0,0,0,0,0,0,0,0,0,0,0,0,0,0,0,0,0,0,0,0,0,0,0,0,0,0,0,0,0,0,0,0,0,0,0,0,0,0,0,0,0,0,0,0,0,0,0,0,0,0,0,0,0,0,0,0,0,0,0,0,0,0,0,0,0,0,0,0,0,0,0,0,0,0,0,0],"id":1,"left_children":[1,3,5,7,9,11,-1,13,-1,15,17,-1,19,21,-1,23,25,27,-1,29,31,-1,-1,-1,33,35,37,39,41,43,45,47,49,51,53,55,57,59,61,63,65,67,69,-1,-1,-1,-1,71,73,-1,75,-1,-1,-1,-1,-1,77,79,81,83,85,87,89,91,93,95,97,99,101,103,105,107,109,111,-1,113,-1,-1,-1,-1,-1,-1,-1,-1,-1,-1,-1,-1,-1,-1,-1,-1,-1,-1,-1,-1,-1,-1,-1,-1,-1,-1,-1,-1,-1,-1,-1,-1,-1,-1,-1,-1,-1,-1,-1],"loss_changes":[6.3946304E3,1.8028374E3,3.4200684E1,1.0958472E2,9.943187E2,9.985205E1,0E0,2.3009277E1,0E0,1.5175757E2,3.1606372E2,0E0,2.183435E1,7.525362E1,0E0,4.900818E0,1.0576193E2,1.8616614E2,0E0,1.9710693E0,5.699814E0,0E0,0E0,0E0,1.5110008E1,1.9300526E2,3.2096558E1,8.163458E1,8.3239525E1,4.3310547E-1,1.9147282E0,2.6672974E0,3.9212193E0,3.0896328E1,2.271347E-1,9.160324E0,1.1446682E1,5.9293976E0,8.575369E1,1.3731738E2,4.6833557E1,7.4420746E1,6.7383194E0,0E0,0E0,0E0,0E0,2.003685E0,3.1732035E0,0E0,4.895347E0,0E0,0E0,0E0,0E0,0E0,2.8282166E-1,2.6342705E1,2.1658936E0,1.5218887E0,2.8017563E1,9.001749E1,7.477722E0,4.5350647E-1,2.759061E1,5.286798E1,1.92709E1,5.5525635E1,6.3779957E1,1.0640945E0,1.9946085E1,3.3725805E0,2.455574E0,1.4141903E0,0E0,1.2014675E-1,0E0,0E0,0E0,0E0,0E0,0E0,0E0,0E0,0E0,0E0,0E0,0E0,0E0,0E0,0E0,0E0,0E0,0E0,0E0,0E0,0E0,0E0,0E0,0E0,0E0,0E0,0E0,0E0,0E0,0E0,0E0,0E0,0E0,0E0,0E0,0E0,0E0,0E0,0E0],"parents":[2147483647,0,0,1,1,2,2,3,3,4,4,5,5,7,7,9,9,10,10,12,12,13,13,15,15,16,16,17,17,19,19,20,20,24,24,25,25,26,26,27,27,28,28,29,29,30,30,31,31,32,32,33,33,34,34,35,35,36,36,37,37,38,38,39,39,40,40,41,41,42,42,47,47,48,48,50,50,56,56,57,57,58,58,59,59,60,60,61,61,62,62,63,63,64,64,65,65,66,66,67,67,68,68,69,69,70,70,71,71,72,72,73,73,75,75],"right_children":[2,4,6,8,10,12,-1,14,-1,16,18,-1,20,22,-1,24,26,28,-1,30,32,-1,-1,-1,34,36,38,40,42,44,46,48,50,52,54,56,58,60,62,64,66,68,70,-1,-1,-1,-1,72,74,-1,76,-1,-1,-1,-1,-1,78,80,82,84,86,88,90,92,94,96,98,100,102,104,106,108,110,112,-1,114,-1,-1,-1,-1,-1,-1,-1,-1,-1,-1,-1,-1,-1,-1,-1,-1,-1,-1,-1,-1,-1,-1,-1,-1,-1,-1,-1,-1,-1,-1,-1,-1,-1,-1,-1,-1,-1,-1,-1],"split_conditions":[1E0,2E-1,1E0,1E1,5.7E1,2.5E-1,3.3424565E-1,2E0,2.811375E-1,1.1E1,1E0,-2.945308E-1,3.2666668E1,1E0,-3.3343518E-1,7E0,9E0,1E0,3.3011737E-1,2.36E2,1.032E3,-3.2423636E-1,3.0652913E-1,3.215243E-1,4E0,3.8E0,3.3E1,4.8153847E1,2E1,1.8E2,1E0,8.875E1,2.38125E1,6E-1,7E0,2.875E0,1.0434783E1,1.8E1,3.3E1,3.5E0,9.5454544E1,3.4E0,8.875E1,3.085772E-1,1.5317109E-1,9.286094E-2,2.628198E-1,5.4E1,5.35E2,-8.693388E-2,5.5166668E1,-2.6935586E-1,2.641173E-1,1.8430881E-1,3.2755584E-1,-4.8990004E-2,1.4E0,5.375E0,9E0,1.1E1,1.8E1,5.8333335E0,4.5E1,1E0,6.682353E1,5.6E1,8.45E1,5.1E1,4.2E1,5.090909E0,2E1,3.21E2,5.2142857E1,3.11E2,-2.4385367E-2,4.1E1,-1.2836846E-2,-3.3300564E-1,-2.0612724E-1,2.0492898E-1,-2.5246972E-1,2.840788E-1,1.5230854E-1,1.3077E-1,3.2427832E-1,1.1068651E-2,2.6892743E-1,-2.525034E-1,2.1177661E-1,3.0333158E-1,1.7276517E-1,-3.3941215E-1,-2.7471057E-1,-7.211876E-2,6.807945E-2,-3.0765957E-1,-1.8535458E-1,3.1123573E-2,-1.3715339E-1,-3.3048907E-1,-9.539813E-2,4.9327325E-2,-8.724088E-2,1.5737724E-1,2.911589E-1,-2.104467E-1,2.819049E-1,8.058333E-3,2.0549019E-1,2.115037E-1,3.0909446E-1,6.1606884E-2,2.4049337E-1,1.2594797E-1,2.8183842E-1],"split_indices":[0,3,2,7,5,9,0,8,0,5,1,0,3,5,0,5,8,4,0,8,5,0,0,0,8,9,5,3,6,9,4,3,9,9,8,3,9,5,8,9,9,9,3,0,0,0,0,8,5,0,3,0,0,0,0,0,9,3,3,8,8,9,5,9,9,8,3,8,3,9,7,5,9,5,0,3,0,0,0,0,0,0,0,0,0,0,0,0,0,0,0,0,0,0,0,0,0,0,0,0,0,0,0,0,0,0,0,0,0,0,0,0,0,0,0],"split_type":[0,0,0,0,0,0,0,0,0,0,0,0,0,0,0,0,0,0,0,0,0,0,0,0,0,0,0,0,0,0,0,0,0,0,0,0,0,0,0,0,0,0,0,0,0,0,0,0,0,0,0,0,0,0,0,0,0,0,0,0,0,0,0,0,0,0,0,0,0,0,0,0,0,0,0,0,0,0,0,0,0,0,0,0,0,0,0,0,0,0,0,0,0,0,0,0,0,0,0,0,0,0,0,0,0,0,0,0,0,0,0,0,0,0,0],"sum_hessian":[6.1539233E3,4.3358047E3,1.8181189E3,1.3531523E3,2.9826523E3,5.989435E2,1.2191753E3,1.3419817E3,1.1170748E1,6.4064417E2,2.342008E3,1.1355841E1,5.8758765E2,3.8565742E1,1.3034159E3,2.3237296E2,4.082712E2,2.2782256E3,6.3782608E1,4.71366E2,1.16221664E2,2.9363459E1,9.202284E0,1.8106915E2,5.130381E1,1.2675669E2,2.815145E2,1.4782635E3,7.999619E2,4.5750357E2,1.3862447E1,1.0071407E2,1.550759E1,1.6964403E1,3.4339405E1,6.2780315E1,6.397637E1,1.3278731E2,1.487272E2,5.694648E2,9.0879877E2,7.553048E2,4.46571E1,4.538277E2,3.6758564E0,6.1722903E0,7.6901565E0,8.7672386E1,1.3041684E1,3.4307501E0,1.207684E1,5.8015037E0,1.11629E1,5.078363E0,2.9261044E1,5.8491488E0,5.6931168E1,2.2344652E1,4.1631718E1,3.9769936E1,9.3017365E1,6.7073296E1,8.1653915E1,1.0912394E2,4.6034085E2,7.8935315E2,1.19445625E2,2.096579E2,5.456469E2,3.3027668E1,1.1629431E1,1.8134901E1,6.953749E1,9.085132E0,3.9565525E0,6.874574E0,5.2022657E0,4.9820282E1,7.1108847E0,1.616803E1,6.1766233E0,3.0796951E1,1.0834768E1,3.6510847E0,3.611885E1,2.2132675E1,7.088469E1,3.9678875E1,2.7394419E1,4.0909027E1,4.074489E1,3.972449E1,6.939945E1,3.9574765E2,6.4593185E1,1.8914862E2,6.002045E2,4.090076E1,7.854487E1,5.383946E1,1.5581844E2,2.8055322E2,2.6509372E2,7.170802E0,2.5856867E1,4.7043715E0,6.9250593E0,4.6585774E0,1.3476323E1,4.3113216E1,2.6424273E1,3.6751068E0,5.410025E0,3.182263E0,3.6923115E0],"tree_param":{"num_deleted":"0","num_feature":"10","num_nodes":"115","size_leaf_vector":"1"}},{"base_weights":[2.6900023E-3,-5.6065786E-1,1.3882333E0,-1.4284823E0,-1.8848898E-1,1.203687E0,2.960339E-1,-1.45711E0,2.5488588E-1,9.369757E-1,-4.0519664E-1,-2.545924E-1,1.248156E0,-7.756821E-1,-2.9553494E-1,1.3172113E0,5.614285E-1,-4.5852143E-1,2.9548064E-1,1.2849808E0,3.727282E-1,-2.8770572E-1,2.7111623E-1,2.8839996E-1,1.0876809E0,-7.847585E-4,9.600077E-1,-2.311396E-1,-7.3536927E-1,2.730809E-1,1.1310927E0,5.8893937E-1,-1.2419243E-1,-1.0879584E-1,1.3029063E0,-2.916576E-1,9.188592E-1,1.1664286E0,6.462515E-1,-6.474954E-1,-4.2726055E-2,7.673688E-2,-8.2971257E-1,1.186392E0,8.8195556E-1,3.2632804E-1,2.06407E-1,-2.5270376E-1,2.3525587E-1,6.5664107E-1,2.7282822E-1,2.084332E-2,1.189119E0,9.067417E-1,1.3064301E0,-1.8046814E-1,1.2032923E0,-8.7502904E-2,-9.025881E-1,5.8402723E-1,-1.62973E-1,-3.0203393E-1,1.0747218E0,-1.1238823E0,-5.819618E-1,7.45124E-1,1.2098446E0,1.2463271E-1,1.0649159E0,6.385825E-1,-1.9225486E-2,-4.8529785E-2,2.49481E-1,1.9557802E-1,-1.5381418E-1,1.7082514E-1,2.7514908E-1,2.6718804E-1,-4.675747E-2,1.441857E-1,2.8642115E-1,-2.0244761E-1,2.788384E-1,1.6677447E-1,2.807549E-1,-2.37672E-1,2.1377948E-1,6.765312E-2,-1.9866769E-1,4.0668346E-2,1.9297181E-1,-3.934921E-2,3.429267E-1,1.6005863E-2,2.509998E-1,-2.8589126E-1,-7.0532225E-2,1.5434355E-1,-1.4738448E-1,2.3546271E-1,-1.3167215E-2,2.7411902E-1,2.2472933E-1,-1.01503946E-1,1.4236127E-1,6.636938E-2,2.3636945E-1,1.8921201E-1,2.9918773E-2],"categories":[],"categories_nodes":[],"categories_segments":[],"categories_sizes":[],"default_left":[0,0,0,0,0,0,0,0,0,0,0,0,0,0,0,0,0,0,0,0,0,0,0,0,0,0,0,0,0,0,0,0,0,0,0,0,0,0,0,0,0,0,0,0,0,0,0,0,0,0,0,0,0,0,0,0,0,0,0,0,0,0,0,0,0,0,0,0,0,0,0,0,0,0,0,0,0,0,0,0,0,0,0,0,0,0,0,0,0,0,0,0,0,0,0,0,0,0,0,0,0,0,0,0,0,0,0,0,0],"id":2,"left_children":[1,3,5,7,9,11,-1,13,-1,15,17,-1,19,21,-1,23,25,27,-1,29,31,-1,-1,-1,33,35,37,39,41,-1,43,45,-1,47,49,-1,51,53,55,57,59,61,63,65,67,69,-1,-1,-1,71,-1,73,75,77,79,81,83,85,87,89,91,-1,93,95,97,99,101,103,105,107,-1,-1,-1,-1,-1,-1,-1,-1,-1,-1,-1,-1,-1,-1,-1,-1,-1,-1,-1,-1,-1,-1,-1,-1,-1,-1,-1,-1,-1,-1,-1,-1,-1,-1,-1,-1,-1,-1,-1],"loss_changes":[4.525659E3,1.3310739E3,2.6654297E1,9.757715E1,7.042782E2,6.3556763E1,0E0,1.6013916E1,0E0,6.584427E1,2.4369638E2,0E0,1.735614E1,5.5601254E1,0E0,5.046692E0,5.295945E1,1.4806815E2,0E0,5.021057E0,5.466404E0,0E0,0E0,0E0,2.213581E1,1.3409149E2,8.202774E0,1.0151351E2,8.138916E1,0E0,1.542511E0,1.9918213E0,0E0,2.2178343E1,1.9719772E0,0E0,1.4861786E1,1.8028717E0,2.6522015E1,5.7516953E1,6.733591E1,1.7803549E2,6.866046E1,6.599579E-1,5.1367397E0,1.9117739E0,0E0,0E0,0E0,4.6591153E0,0E0,1.2248539E1,1.7714844E0,1.6001852E1,2.7291183E0,3.266685E1,1.3665466E0,1.6331705E2,3.151709E1,2.0657063E1,4.785618E1,0E0,1.2267212E1,1.01710205E2,1.0929924E2,3.6587172E0,4.2289734E-1,3.5283623E0,2.2220306E0,1.0908394E0,0E0,0E0,0E0,0E0,0E0,0E0,0E0,0E0,0E0,0E0,0E0,0E0,0E0,0E0,0E0,0E0,0E0,0E0,0E0,0E0,0E0,0E0,0E0,0E0,0E0,0E0,0E0,0E0,0E0,0E0,0E0,0E0,0E0,0E0,0E0,0E0,0E0,0E0,0E0],"parents":[2147483647,0,0,1,1,2,2,3,3,4,4,5,5,7,7,9,9,10,10,12,12,13,13,15,15,16,16,17,17,19,19,20,20,24,24,25,25,26,26,27,27,28,28,30,30,31,31,33,33,34,34,36,36,37,37,38,38,39,39,40,40,41,41,42,42,43,43,44,44,45,45,49,49,51,51,52,52,53,53,54,54,55,55,56,56,57,57,58,58,59,59,60,60,62,62,63,63,64,64,65,65,66,66,67,67,68,68,69,69],"right_children":[2,4,6,8,10,12,-1,14,-1,16,18,-1,20,22,-1,24,26,28,-1,30,32,-1,-1,-1,34,36,38,40,42,-1,44,46,-1,48,50,-1,52,54,56,58,60,62,64,66,68,70,-1,-1,-1,72,-1,74,76,78,80,82,84,86,88,90,92,-1,94,96,98,100,102,104,106,108,-1,-1,-1,-1,-1,-1,-1,-1,-1,-1,-1,-1,-1,-1,-1,-1,-1,-1,-1,-1,-1,-1,-1,-1,-1,-1,-1,-1,-1,-1,-1,-1,-1,-1,-1,-1,-1,-1,-1],"split_conditions":[1E0,2E-1,1E0,1E1,3.8E1,2.5E-1,2.960339E-1,2E0,2.5488588E-1,1.2E1,1E0,-2.545924E-1,7.7375E1,1E0,-2.9553494E-1,5E0,1.2E1,6.0666668E1,2.9548064E-1,1.35E2,1.032E3,-2.8770572E-1,2.7111623E-1,2.8839996E-1,1E0,1.25E0,2.8E1,8E0,1.25E2,2.730809E-1,4.6E1,1.22833336E2,-1.2419243E-1,2.25E0,3E0,-2.916576E-1,5.090909E0,1.7E1,2.7E1,6.2E1,1.16E2,6.2E1,1.24E2,6E0,4.9E1,2.7E1,2.06407E-1,-2.5270376E-1,2.3525587E-1,1.8E0,2.7282822E-1,3.4E0,1.4947369E1,1.8E1,1.2555555E1,7.090909E0,3.1E1,3.8E1,8.4375E0,3.231579E1,1E0,-3.0203393E-1,6.7E1,7.4666664E1,2E2,3.8E0,1.8E1,4.5210526E1,4.2E1,1E0,-1.9225486E-2,-4.8529785E-2,2.49481E-1,1.9557802E-1,-1.5381418E-1,1.7082514E-1,2.7514908E-1,2.6718804E-1,-4.675747E-2,1.441857E-1,2.8642115E-1,-2.0244761E-1,2.788384E-1,1.6677447E-1,2.807549E-1,-2.37672E-1,2.1377948E-1,6.765312E-2,-1.9866769E-1,4.0668346E-2,1.9297181E-1,-3.934921E-2,3.429267E-1,1.6005863E-2,2.509998E-1,-2.8589126E-1,-7.0532225E-2,1.5434355E-1,-1.4738448E-1,2.3546271E-1,-1.3167215E-2,2.7411902E-1,2.2472933E-1,-1.01503946E-1,1.4236127E-1,6.636938E-2,2.3636945E-1,1.8921201E-1,2.9918773E-2],"split_indices":[0,3,2,7,5,9,0,8,0,5,1,0,3,5,0,5,8,3,0,5,5,0,0,0,8,9,5,9,5,0,3,9,0,9,8,0,9,8,8,5,5,8,8,9,3,9,0,0,0,9,0,3,9,5,3,9,8,8,3,9,2,0,8,9,5,9,3,9,8,4,0,0,0,0,0,0,0,0,0,0,0,0,0,0,0,0,0,0,0,0,0,0,0,0,0,0,0,0,0,0,0,0,0,0,0,0,0,0,0],"split_type":[0,0,0,0,0,0,0,0,0,0,0,0,0,0,0,0,0,0,0,0,0,0,0,0,0,0,0,0,0,0,0,0,0,0,0,0,0,0,0,0,0,0,0,0,0,0,0,0,0,0,0,0,0,0,0,0,0,0,0,0,0,0,0,0,0,0,0,0,0,0,0,0,0,0,0,0,0,0,0,0,0,0,0,0,0,0,0,0,0,0,0,0,0,0,0,0,0,0,0,0,0,0,0,0,0,0,0,0,0],"sum_hessian":[5.796095E3,4.121095E3,1.675E3,1.2360444E3,2.8850505E3,5.6165784E2,1.1133422E3,1.2235463E3,1.2498217E1,4.652847E2,2.4197659E3,9.419591E0,5.522382E2,3.697778E1,1.1865685E3,2.2995325E2,2.3533147E2,2.353849E3,6.591655E1,5.2949713E2,2.2741062E1,2.845347E1,8.524309E0,1.4554347E2,8.4409775E1,9.803993E1,1.3729153E2,1.2933907E3,1.0604585E3,3.4258557E2,1.8691159E2,1.9011732E1,3.7293286E0,1.2944344E1,7.146543E1,3.7701996E1,6.033794E1,8.1171196E1,5.6120327E1,4.0219177E2,8.9119904E2,1.10392006E2,9.5006647E2,1.4988142E2,3.7030174E1,1.3027277E1,5.9844556E0,6.8267984E0,6.1175447E0,7.200068E0,6.4265366E1,1.420728E1,4.613066E1,3.1051264E1,5.0119934E1,2.28637E1,3.3256626E1,1.2629207E2,2.7589972E2,1.4283821E2,7.483608E2,4.242243E1,6.796958E1,4.3272687E2,5.173396E2,9.217761E0,1.4066367E2,7.5324616E0,2.9497715E1,7.1964693E0,5.8308077E0,3.0882475E0,4.1118207E0,6.3164296E0,7.8908505E0,1.8499983E1,2.7630676E1,2.2436666E1,8.614597E0,1.004737E1,4.0072567E1,1.5194699E1,7.669002E0,1.3514098E1,1.9742529E1,6.468568E1,6.160639E1,1.8616993E1,2.572827E2,7.2199936E1,7.063827E1,7.360171E2,1.2343736E1,1.065021E1,5.7319366E1,3.093159E2,1.2341099E2,5.2729927E1,4.6460965E2,5.718445E0,3.4993165E0,4.3897896E1,9.676576E1,3.6926274E0,3.8398345E0,4.585861E0,2.4911854E1,3.8443823E0,3.352087E0],"tree_param":{"num_deleted":"0","num_feature":"10","num_nodes":"109","size_leaf_vector":"1"}},{"base_weights":[4.0670442E-3,-4.8635086E-1,1.2577196E0,-1.3112272E0,-1.5994509E-1,1.0613911E0,2.713531E-1,-1.3348963E0,2.219516E-1,6.7422587E-1,-3.714325E-1,-2.2731407E-1,1.0992042E0,-6.8596655E-1,-2.7101842E-1,1.1904197E0,3.8982895E-1,-4.1258395E-1,2.671674E-1,1.1819052E0,7.284792E-1,-2.6313108E-1,2.4786408E-1,1.2962068E0,9.867496E-1,-2.0340277E-1,6.598308E-1,-5.846793E-1,-9.752861E-2,2.5157127E-1,1.0731621E0,7.912593E-1,1.4078456E-1,1.4758956E-1,2.619683E-1,3.7033486E-1,2.5537825E-1,-1.2223258E0,6.7061645E-1,1.0509349E0,4.7285536E-1,-8.434178E-1,-4.233118E-1,-5.228773E-1,5.8636896E-2,1.10029E0,7.33027E-1,8.2785976E-1,7.7909166E-3,1.3384716E-1,-5.7940263E-2,-2.460367E-1,2.5130448E-1,-3.8230765E-1,-2.7334508E-1,4.021939E-1,1.1125743E0,2.5041312E-1,9.1549337E-1,-2.0523642E-1,8.4408885E-1,-1.2436196E0,-6.664722E-1,-1.0083098E-1,-6.716409E-1,-5.2790057E-2,-9.664049E-1,5.556365E-1,-1.1314496E-1,1.0356762E0,2.63424E-1,3.3017924E-1,9.6648705E-1,4.912116E-1,9.1028637E-1,-2.311341E-1,6.682235E-2,1.3189952E-1,-2.2057442E-1,1.5866195E-1,2.5793874E-1,9.904212E-3,2.3155057E-1,-1.8603975E-1,2.044945E-1,1.2489319E-1,2.4727853E-1,-4.1267812E-2,-2.7722153E-1,1.0861715E-1,-1.7542018E-1,-4.042824E-2,8.732619E-2,-1.6212003E-1,-4.3747555E-2,-2.3231676E-1,8.980601E-2,-3.041583E-1,-7.952611E-2,7.7855974E-2,2.4820629E-1,-4.3881178E-2,1.3014306E-1,2.238196E-1,1.733752E-1,-1.8190995E-2,1.4055847E-1,6.358989E-2,2.512245E-1,1.7351544E-1,-1.1801267E-2,1.9110289E-1,4.5360535E-2],"categories":[],"categories_nodes":[],"categories_segments":[],"categories_sizes":[],"default_left":[0,0,0,0,0,0,0,0,0,0,0,0,0,0,0,0,0,0,0,0,0,0,0,0,0,0,0,0,0,0,0,0,0,0,0,0,0,0,0,0,0,0,0,0,0,0,0,0,0,0,0,0,0,0,0,0,0,0,0,0,0,0,0,0,0,0,0,0,0,0,0,0,0,0,0,0,0,0,0,0,0,0,0,0,0,0,0,0,0,0,0,0,0,0,0,0,0,0,0,0,0,0,0,0,0,0,0,0,0,0,0,0,0],"id":3,"left_children":[1,3,5,7,9,11,-1,13,-1,15,17,-1,19,21,-1,23,25,27,-1,29,31,-1,-1,33,35,37,39,41,43,-1,45,47,49,-1,-1,51,-1,53,55,57,59,61,63,65,67,69,71,73,-1,-1,-1,-1,-1,75,-1,77,79,-1,81,83,85,87,89,91,93,95,97,99,101,103,-1,105,107,109,111,-1,-1,-1,-1,-1,-1,-1,-1,-1,-1,-1,-1,-1,-1,-1,-1,-1,-1,-1,-1,-1,-1,-1,-1,-1,-1,-1,-1,-1,-1,-1,-1,-1,-1,-1,-1,-1,-1],"loss_changes":[3.308785E3,1.0413534E3,2.798706E1,6.4321045E1,4.894251E2,4.3805786E1,0E0,1.3309082E1,0E0,8.191783E1,1.5600568E2,0E0,1.4587891E1,4.3840485E1,0E0,3.0055542E0,5.8326916E1,1.17130554E2,0E0,2.0395508E0,3.3756561E0,0E0,0E0,5.340576E-3,1.2434242E1,1.02699905E2,1.7778183E1,5.7996124E1,5.0828342E1,0E0,8.134308E-1,2.3129807E0,2.5457125E0,0E0,0E0,3.6303802E1,0E0,5.9276276E0,6.9343185E0,1.0334167E0,4.3193027E1,3.711554E1,6.902504E1,4.2789124E1,4.789606E1,8.859863E-1,1.1823063E0,1.805294E0,0E0,0E0,0E0,0E0,0E0,5.4770145E0,0E0,1.6325636E1,2.7441406E-1,0E0,1.0754181E1,5.5479233E1,8.759819E0,2.3823715E1,9.568495E1,2.0590317E1,3.0488098E1,5.661207E1,3.271353E1,1.5944733E1,3.4005444E1,8.3813477E-1,0E0,1.2213892E0,1.4016409E0,3.8072076E0,1.7627716E0,0E0,0E0,0E0,0E0,0E0,0E0,0E0,0E0,0E0,0E0,0E0,0E0,0E0,0E0,0E0,0E0,0E0,0E0,0E0,0E0,0E0,0E0,0E0,0E0,0E0,0E0,0E0,0E0,0E0,0E0,0E0,0E0,0E0,0E0,0E0,0E0,0E0,0E0],"parents":[2147483647,0,0,1,1,2,2,3,3,4,4,5,5,7,7,9,9,10,10,12,12,13,13,15,15,16,16,17,17,19,19,20,20,23,23,24,24,25,25,26,26,27,27,28,28,30,30,31,31,32,32,35,35,37,37,38,38,39,39,40,40,41,41,42,42,43,43,44,44,45,45,46,46,47,47,53,53,55,55,56,56,58,58,59,59,60,60,61,61,62,62,63,63,64,64,65,65,66,66,67,67,68,68,69,69,71,71,72,72,73,73,74,74],"right_children":[2,4,6,8,10,12,-1,14,-1,16,18,-1,20,22,-1,24,26,28,-1,30,32,-1,-1,34,36,38,40,42,44,-1,46,48,50,-1,-1,52,-1,54,56,58,60,62,64,66,68,70,72,74,-1,-1,-1,-1,-1,76,-1,78,80,-1,82,84,86,88,90,92,94,96,98,100,102,104,-1,106,108,110,112,-1,-1,-1,-1,-1,-1,-1,-1,-1,-1,-1,-1,-1,-1,-1,-1,-1,-1,-1,-1,-1,-1,-1,-1,-1,-1,-1,-1,-1,-1,-1,-1,-1,-1,-1,-1,-1,-1],"split_conditions":[1E0,2E-1,1E0,1E1,5.8E1,2.5E-1,2.713531E-1,2E0,2.219516E-1,1.1E1,1E0,-2.2731407E-1,3.6E1,1E0,-2.7101842E-1,5E0,1E1,1E0,2.671674E-1,7.1E1,1.035E2,-2.6313108E-1,2.4786408E-1,6.666667E-1,4E0,3.4E0,2.7E1,9.5E0,3.4E0,2.5157127E-1,2.36E2,2E1,4.82E2,1.4758956E-1,2.619683E-1,2.5E-1,2.5537825E-1,3.4E0,2.9E1,1.7E1,2.6E1,5.8E1,4.7133335E1,1.55E2,1.9E2,1.06E2,2.4333334E1,5.4E1,7.7909166E-3,1.3384716E-1,-5.7940263E-2,-2.460367E-1,2.5130448E-1,6.666667E-1,-2.7334508E-1,9E0,6.5333336E1,2.5041312E-1,1.7E1,9E0,4.2E1,1.2E1,1.08E2,6.7818184E1,2.56E2,5.8E1,1.64E2,9E1,3.11E2,1.95E1,2.63424E-1,1E0,3.18E2,2.9E1,5.61E2,-2.311341E-1,6.682235E-2,1.3189952E-1,-2.2057442E-1,1.5866195E-1,2.5793874E-1,9.904212E-3,2.3155057E-1,-1.8603975E-1,2.044945E-1,1.2489319E-1,2.4727853E-1,-4.1267812E-2,-2.7722153E-1,1.0861715E-1,-1.7542018E-1,-4.042824E-2,8.732619E-2,-1.6212003E-1,-4.3747555E-2,-2.3231676E-1,8.980601E-2,-3.041583E-1,-7.952611E-2,7.7855974E-2,2.4820629E-1,-4.3881178E-2,1.3014306E-1,2.238196E-1,1.733752E-1,-1.8190995E-2,1.4055847E-1,6.358989E-2,2.512245E-1,1.7351544E-1,-1.1801267E-2,1.9110289E-1,4.5360535E-2],"split_indices":[0,3,2,7,5,9,0,8,0,5,1,0,3,5,0,5,8,4,0,5,3,0,0,3,8,9,5,9,9,0,8,7,5,0,0,9,0,3,9,5,8,8,3,5,5,8,3,8,0,0,0,0,0,9,0,3,9,0,8,9,8,3,5,9,8,8,8,9,8,3,0,4,8,8,8,0,0,0,0,0,0,0,0,0,0,0,0,0,0,0,0,0,0,0,0,0,0,0,0,0,0,0,0,0,0,0,0,0,0,0,0,0,0],"split_type":[0,0,0,0,0,0,0,0,0,0,0,0,0,0,0,0,0,0,0,0,0,0,0,0,0,0,0,0,0,0,0,0,0,0,0,0,0,0,0,0,0,0,0,0,0,0,0,0,0,0,0,0,0,0,0,0,0,0,0,0,0,0,0,0,0,0,0,0,0,0,0,0,0,0,0,0,0,0,0,0,0,0,0,0,0,0,0,0,0,0,0,0,0,0,0,0,0,0,0,0,0,0,0,0,0,0,0,0,0,0,0,0,0],"sum_hessian":[5.379774E3,3.8674668E3,1.512307E3,1.0956295E3,2.7718372E3,5.1104028E2,1.0012667E3,1.085466E3,1.01635685E1,5.6016956E2,2.2116677E3,8.151636E0,5.0288864E2,3.3817184E1,1.0516488E3,1.9785948E2,3.6231006E2,2.1603535E3,5.1314095E1,4.0937704E2,9.35116E1,2.5721346E1,8.095838E0,1.2669126E2,7.116822E1,1.1340035E2,2.4890971E2,1.3966138E3,7.637398E2,2.3480873E2,1.7456831E2,8.417345E1,9.33815E0,4.3346934E0,1.2235657E2,2.350581E1,4.766241E1,5.21758E1,6.1224552E1,7.9013435E1,1.6989629E2,5.3483167E2,8.617821E2,2.0447154E2,5.592683E2,1.5960406E2,1.4964259E1,8.017253E1,4.0009174E0,3.943107E0,5.395043E0,8.238433E0,1.5267376E1,8.18847E0,4.398733E1,3.9278713E1,2.194584E1,2.8478523E1,5.0534912E1,6.026462E1,1.0963166E2,1.62124E2,3.7270764E2,3.755273E2,4.862548E2,9.980692E1,1.0466461E2,1.4307855E2,4.1618973E2,1.274125E2,3.219156E1,6.376153E0,8.588106E0,1.7137724E1,6.3034805E1,3.6428998E0,4.54557E0,3.402386E1,5.254849E0,9.785691E0,1.216015E1,1.1310218E1,3.9224693E1,3.804272E1,2.22219E1,7.1946E1,3.7685658E1,1.9876404E1,1.4224759E2,5.5042385E1,3.1766525E2,3.1649307E2,5.9034245E1,3.7148602E2,1.1476876E2,3.0687279E1,6.9119644E1,5.215507E1,5.2509544E1,1.16395424E2,2.6683128E1,3.6598953E2,5.02002E1,8.1503456E1,4.5909046E1,3.348038E0,3.0281153E0,3.298969E0,5.289137E0,9.834109E0,7.3036146E0,5.87492E1,4.285607E0],"tree_param":{"num_deleted":"0","num_feature":"10","num_nodes":"113","size_leaf_vector":"1"}},{"base_weights":[1.1427281E-2,-4.0594533E-1,1.1565962E0,-1.2304553E0,-1.1332661E-1,9.4305986E-1,2.5430444E-1,-1.2534105E0,2.0113197E-1,7.9247826E-1,-2.577467E-1,-2.1124528E-1,9.797596E-1,-7.024856E-1,-2.5407553E-1,1.1539313E0,5.857018E-1,-2.9579365E-1,2.538204E-1,1.0638665E0,5.47479E-1,-2.4570079E-1,2.2537482E-1,2.5315464E-1,1.0171587E0,-5.960771E-2,8.175908E-1,-4.5853093E-1,-1.3883592E-2,2.3642063E-1,9.434439E-1,6.4861155E-1,2.0872314E-1,-1.5084802E-1,2.4283071E-1,6.287232E-1,-9.347889E-1,5.825103E-1,1.0467885E0,-1.84574E-1,-5.686464E-1,-7.965301E-2,8.822324E-1,3.5877207E-1,9.723317E-1,7.016474E-1,1.567304E-2,-1.3603728E-1,4.5456964E-1,-3.289003E-1,2.218962E-1,-1.1033139E0,2.3853455E-1,-2.502073E-1,-1.0923872E-1,-7.885968E-2,7.537675E-1,9.0078396E-1,1.2910534E0,-3.392812E-1,1.253682E0,-9.380912E-1,-4.2778912E-1,3.930186E-2,-5.168423E-1,4.918257E-1,1.2057984E0,-4.2542975E-2,1.5862212E-1,4.2810563E-2,9.910711E-1,5.329264E-1,1.9488291E-1,1.9571666E-1,2.719339E-2,-1.07812814E-1,-2.9606983E-1,-7.9416506E-2,4.1387107E-2,-1.2831774E-1,8.4096365E-2,1.2782304E-1,2.5086161E-1,2.2221361E-1,8.4446475E-2,3.794823E-1,2.2315066E-1,-1.9206929E-1,-3.4130793E-2,3.105761E-1,1.2420018E-1,-2.620512E-1,-1.1407789E-1,-1.0312928E-1,3.551521E-2,-5.6006582E-3,1.5541229E-1,-2.2424018E-1,-4.921809E-2,-2.2164106E-1,1.781775E-1,1.5394627E-1,2.6069552E-1,2.0117489E-1,8.120302E-2,1.2521255E-1,-6.7245595E-2,-1.22724436E-1,1.02757685E-1],"categories":[],"categories_nodes":[],"categories_segments":[],"categories_sizes":[],"default_left":[0,0,0,0,0,0,0,0,0,0,0,0,0,0,0,0,0,0,0,0,0,0,0,0,0,0,0,0,0,0,0,0,0,0,0,0,0,0,0,0,0,0,0,0,0,0,0,0,0,0,0,0,0,0,0,0,0,0,0,0,0,0,0,0,0,0,0,0,0,0,0,0,0,0,0,0,0,0,0,0,0,0,0,0,0,0,0,0,0,0,0,0,0,0,0,0,0,0,0,0,0,0,0,0,0,0,0,0,0],"id":4,"left_children":[1,3,5,7,9,11,-1,13,-1,15,17,-1,19,21,-1,23,25,27,-1,29,31,-1,-1,-1,33,35,37,39,41,-1,43,45,47,49,-1,51,53,55,57,59,61,63,65,67,69,71,-1,-1,73,-1,-1,75,-1,-1,77,79,81,83,85,87,89,91,93,95,97,99,101,-1,-1,-1,103,105,-1,-1,107,-1,-1,-1,-1,-1,-1,-1,-1,-1,-1,-1,-1,-1,-1,-1,-1,-1,-1,-1,-1,-1,-1,-1,-1,-1,-1,-1,-1,-1,-1,-1,-1,-1,-1],"loss_changes":[2.3592715E3,8.7267706E2,3.1157837E1,4.9895752E1,3.4963324E2,3.5167908E1,0E0,7.878418E0,0E0,2.6795807E1,1.3425273E2,0E0,1.6045105E1,3.051381E1,0E0,7.427521E-1,3.5339745E1,1.0318805E2,0E0,4.320709E0,2.4871082E0,0E0,0E0,0E0,1.5092766E1,3.8706425E1,8.7417755E0,4.2915405E1,4.865075E1,0E0,2.9294128E0,1.7135048E0,4.4773884E0,2.1103413E1,0E0,3.6496765E1,7.241255E0,1.0019497E1,1.9264526E0,9.173057E1,5.2508575E1,4.0004154E1,6.536991E0,2.8304152E0,2.4077454E0,1.9370422E0,0E0,0E0,3.453695E0,0E0,0E0,1.1945667E0,0E0,0E0,8.9422184E-1,5.6064973E0,3.2123146E0,5.3198547E0,1.0824051E0,3.8719646E1,6.619915E0,3.7543182E1,3.933873E1,3.0078741E1,2.6644413E1,1.8398474E1,2.8195953E-1,0E0,0E0,0E0,1.147522E0,3.0585737E0,0E0,0E0,3.3050065E0,0E0,0E0,0E0,0E0,0E0,0E0,0E0,0E0,0E0,0E0,0E0,0E0,0E0,0E0,0E0,0E0,0E0,0E0,0E0,0E0,0E0,0E0,0E0,0E0,0E0,0E0,0E0,0E0,0E0,0E0,0E0,0E0,0E0,0E0],"parents":[2147483647,0,0,1,1,2,2,3,3,4,4,5,5,7,7,9,9,10,10,12,12,13,13,15,15,16,16,17,17,19,19,20,20,24,24,25,25,26,26,27,27,28,28,30,30,31,31,32,32,33,33,35,35,36,36,37,37,38,38,39,39,40,40,41,41,42,42,43,43,44,44,45,45,48,48,51,51,54,54,55,55,56,56,57,57,58,58,59,59,60,60,61,61,62,62,63,63,64,64,65,65,66,66,70,70,71,71,74,74],"right_children":[2,4,6,8,10,12,-1,14,-1,16,18,-1,20,22,-1,24,26,28,-1,30,32,-1,-1,-1,34,36,38,40,42,-1,44,46,48,50,-1,52,54,56,58,60,62,64,66,68,70,72,-1,-1,74,-1,-1,76,-1,-1,78,80,82,84,86,88,90,92,94,96,98,100,102,-1,-1,-1,104,106,-1,-1,108,-1,-1,-1,-1,-1,-1,-1,-1,-1,-1,-1,-1,-1,-1,-1,-1,-1,-1,-1,-1,-1,-1,-1,-1,-1,-1,-1,-1,-1,-1,-1,-1,-1,-1],"split_conditions":[1E0,2E-1,1E0,1E1,1.025E1,2.5E-1,2.5430444E-1,2E0,2.0113197E-1,7E0,1E0,-2.1124528E-1,4.1E1,1E0,-2.5407553E-1,1E0,1.5E0,1E0,2.538204E-1,5.6E1,7.37E2,-2.4570079E-1,2.2537482E-1,2.5315464E-1,1E0,1.2E1,1E0,1.6E2,2E1,2.3642063E-1,1.8E0,1.22166664E2,8.91E2,2.5E-1,2.4283071E-1,7E0,1E0,4.2352943E0,1.8E1,1.04E2,9.818182E0,9.5E1,2E1,1.2E1,5.9E1,1.78E2,1.567304E-2,-1.3603728E-1,5.6E1,-3.289003E-1,2.218962E-1,2.875E0,2.3853455E-1,-2.502073E-1,2.8E1,1.1E1,3.7117645E1,3.9E1,5E0,1.2E1,1.5E1,1.66E2,3.18E2,9.5454544E1,9.6E1,5.090909E0,2.7E1,-4.2542975E-2,1.5862212E-1,4.2810563E-2,1.233E3,8.45E1,1.9488291E-1,1.9571666E-1,4.7E1,-1.07812814E-1,-2.9606983E-1,-7.9416506E-2,4.1387107E-2,-1.2831774E-1,8.4096365E-2,1.2782304E-1,2.5086161E-1,2.2221361E-1,8.4446475E-2,3.794823E-1,2.2315066E-1,-1.9206929E-1,-3.4130793E-2,3.105761E-1,1.2420018E-1,-2.620512E-1,-1.1407789E-1,-1.0312928E-1,3.551521E-2,-5.6006582E-3,1.5541229E-1,-2.2424018E-1,-4.921809E-2,-2.2164106E-1,1.781775E-1,1.5394627E-1,2.6069552E-1,2.0117489E-1,8.120302E-2,1.2521255E-1,-6.7245595E-2,-1.22724436E-1,1.02757685E-1],"split_indices":[0,3,2,7,3,9,0,8,0,5,1,0,3,5,0,5,9,4,0,5,5,0,0,0,8,5,4,5,6,0,9,3,5,9,0,8,9,9,8,8,9,3,7,7,5,8,0,0,3,0,0,3,0,0,8,8,9,5,3,8,7,8,8,9,8,9,8,0,0,0,5,3,0,0,9,0,0,0,0,0,0,0,0,0,0,0,0,0,0,0,0,0,0,0,0,0,0,0,0,0,0,0,0,0,0,0,0,0,0],"split_type":[0,0,0,0,0,0,0,0,0,0,0,0,0,0,0,0,0,0,0,0,0,0,0,0,0,0,0,0,0,0,0,0,0,0,0,0,0,0,0,0,0,0,0,0,0,0,0,0,0,0,0,0,0,0,0,0,0,0,0,0,0,0,0,0,0,0,0,0,0,0,0,0,0,0,0,0,0,0,0,0,0,0,0,0,0,0,0,0,0,0,0,0,0,0,0,0,0,0,0,0,0,0,0,0,0,0,0,0,0],"sum_hessian":[4.9341235E3,3.616636E3,1.3174874E3,9.464957E2,2.6701401E3,4.6419778E2,8.532896E2,9.373131E2,9.182628E0,3.665632E2,2.3035771E3,7.866653E0,4.5633115E2,2.9271378E1,9.0804175E2,1.3172404E2,2.3483916E2,2.2483574E3,5.5219677E1,3.8078284E2,7.554831E1,2.2989403E1,6.281975E0,6.792536E1,6.3798695E1,6.2276554E1,1.725626E2,1.4250797E3,8.232776E2,1.8768675E2,1.9309608E2,5.747497E1,1.8073336E1,9.241129E0,5.4557564E1,3.5017143E1,2.725941E1,8.693636E1,8.562624E1,4.093447E2,1.01573505E3,7.678344E2,5.544322E1,9.723236E0,1.8337285E2,5.237353E1,5.1014404E0,3.532853E0,1.4540482E1,4.089601E0,5.1515274E0,8.366135E0,2.6651007E1,1.9336634E1,7.922778E0,1.7992296E1,6.894407E1,5.6526436E1,2.9099812E1,3.702794E2,3.9065304E1,2.7880823E2,7.369268E2,6.043161E2,1.6351831E2,2.6268412E1,2.9174807E1,4.4190564E0,5.304179E0,4.722017E0,1.7865083E2,3.4183186E1,1.8190346E1,5.952396E0,8.588086E0,4.32433E0,4.0418053E0,4.0132413E0,3.9095368E0,8.325297E0,9.666999E0,5.794761E1,1.0996462E1,3.835211E1,1.8174322E1,4.322973E0,2.4776838E1,7.806516E1,2.9221423E2,2.5535149E1,1.3530156E1,1.3728926E2,1.4151898E2,6.4366E2,9.326683E1,5.546756E2,4.964052E1,4.9619377E1,1.1389893E2,4.8890057E0,2.1379406E1,6.9643226E0,2.2210484E1,1.7354057E2,5.1102467E0,3.1127344E1,3.0558393E0,3.5939813E0,4.9941044E0],"tree_param":{"num_deleted":"0","num_feature":"10","num_nodes":"109","size_leaf_vector":"1"}},{"base_weights":[8.640934E-3,-3.5839146E-1,1.0878031E0,-1.1658329E0,-1.042001E-1,8.7198746E-1,2.42011E-1,-1.1906644E0,2.0702021E-1,6.3045657E-1,-2.4659632E-1,-2.0111334E-1,9.1075236E-1,-5.703349E-1,-2.418485E-1,9.830231E-1,3.8108453E-1,-2.740395E-1,2.3831372E-1,2.1979229E-1,7.525691E-1,-2.3129745E-1,2.1411167E-1,1.1331753E0,7.682467E-1,-1.9030677E-2,7.7896917E-1,-4.1606104E-1,-2.7496021E-2,8.1298923E-1,3.5706723E-1,1.0989052E-1,2.297446E-1,2.1392764E-1,1.0536765E0,-7.18957E-1,4.8283622E-1,6.20298E-1,1.0985354E0,-4.33534E-1,3.3006E-1,-7.625301E-2,7.8390497E-1,7.6957977E-1,2.4714771E-1,5.496026E-1,1.04953356E-1,-2.197324E-1,9.152213E-1,7.8397757E-1,2.3266666E-1,3.476753E-1,-2.64818E-1,8.604325E-1,1.3512932E-1,9.6119577E-1,-3.348293E-1,2.3063944E-1,1.1039791E-1,-5.170363E-1,-5.993523E-2,-4.0020826E-1,3.78736E-2,2.317797E-1,1.0699167E0,7.94213E-1,2.1539879E-1,8.118505E-1,-1.0051899E-2,-3.8522688E-1,5.0660753E-1,6.3724644E-2,2.2152577E-1,2.2678283E-1,-2.5046602E-2,-2.140084E-1,2.251046E-1,2.0503283E-1,1.0898415E-1,-1.5936713E-1,1.4103593E-1,9.421124E-2,2.2608626E-1,-2.0667437E-1,1.2251174E-1,-4.991298E-2,-1.3180043E-1,2.7359454E-2,-1.2463578E-1,-2.3851798E-1,-3.7724927E-2,8.275767E-2,-2.0321792E-2,-1.6350465E-1,1.1517179E-1,9.380694E-2,2.2756179E-1,1.1902881E-1,1.7400716E-1,1.4197032E-1,-6.624323E-2,-7.919601E-4,2.1476303E-1,3.0653913E-2,-1.6486818E-1,1.970134E-1,-3.1855345E-2],"categories":[],"categories_nodes":[],"categories_segments":[],"categories_sizes":[],"default_left":[0,0,0,0,0,0,0,0,0,0,0,0,0,0,0,0,0,0,0,0,0,0,0,0,0,0,0,0,0,0,0,0,0,0,0,0,0,0,0,0,0,0,0,0,0,0,0,0,0,0,0,0,0,0,0,0,0,0,0,0,0,0,0,0,0,0,0,0,0,0,0,0,0,0,0,0,0,0,0,0,0,0,0,0,0,0,0,0,0,0,0,0,0,0,0,0,0,0,0,0,0,0,0,0,0,0,0],"id":5,"left_children":[1,3,5,7,9,11,-1,13,-1,15,17,-1,19,21,-1,23,25,27,-1,-1,29,-1,-1,31,33,35,37,39,41,43,45,-1,-1,47,49,51,53,55,57,59,-1,61,63,65,-1,67,69,-1,71,73,-1,75,-1,77,79,81,83,-1,-1,85,87,89,91,93,95,97,99,101,-1,103,105,-1,-1,-1,-1,-1,-1,-1,-1,-1,-1,-1,-1,-1,-1,-1,-1,-1,-1,-1,-1,-1,-1,-1,-1,-1,-1,-1,-1,-1,-1,-1,-1,-1,-1,-1,-1],"loss_changes":[1.7974105E3,6.9488727E2,2.9330688E1,4.553833E1,2.696954E2,3.1488464E1,0E0,8.554321E0,0E0,3.6429245E1,8.553583E1,0E0,1.1441162E1,2.5491459E1,0E0,4.7016907E0,3.930817E1,7.419624E1,0E0,0E0,5.1358795E0,0E0,0E0,2.726364E-1,1.1514393E1,4.391871E1,5.594841E0,4.926439E1,3.0747435E1,2.6494598E0,1.4895763E0,0E0,0E0,2.5376163E1,5.289688E-1,3.415355E1,9.447029E0,2.8000328E1,5.515938E-1,4.1590073E1,0E0,2.7102177E1,6.709404E0,2.2940292E0,0E0,2.8468122E0,3.1559334E0,0E0,1.6904879E0,5.598851E0,0E0,2.2914839E1,0E0,1.2465801E0,2.1338097E1,4.6854973E0,1.592132E1,0E0,0E0,4.123654E1,2.7217056E1,3.1788612E1,2.8497131E1,6.359829E0,6.3905716E-1,2.0862122E0,2.683041E0,2.6691542E0,0E0,1.8621627E0,2.9278917E0,0E0,0E0,0E0,0E0,0E0,0E0,0E0,0E0,0E0,0E0,0E0,0E0,0E0,0E0,0E0,0E0,0E0,0E0,0E0,0E0,0E0,0E0,0E0,0E0,0E0,0E0,0E0,0E0,0E0,0E0,0E0,0E0,0E0,0E0,0E0,0E0],"parents":[2147483647,0,0,1,1,2,2,3,3,4,4,5,5,7,7,9,9,10,10,12,12,13,13,15,15,16,16,17,17,20,20,23,23,24,24,25,25,26,26,27,27,28,28,29,29,30,30,33,33,34,34,35,35,36,36,37,37,38,38,39,39,41,41,42,42,43,43,45,45,46,46,48,48,49,49,51,51,53,53,54,54,55,55,56,56,59,59,60,60,61,61,62,62,63,63,64,64,65,65,66,66,67,67,69,69,70,70],"right_children":[2,4,6,8,10,12,-1,14,-1,16,18,-1,20,22,-1,24,26,28,-1,-1,30,-1,-1,32,34,36,38,40,42,44,46,-1,-1,48,50,52,54,56,58,60,-1,62,64,66,-1,68,70,-1,72,74,-1,76,-1,78,80,82,84,-1,-1,86,88,90,92,94,96,98,100,102,-1,104,106,-1,-1,-1,-1,-1,-1,-1,-1,-1,-1,-1,-1,-1,-1,-1,-1,-1,-1,-1,-1,-1,-1,-1,-1,-1,-1,-1,-1,-1,-1,-1,-1,-1,-1,-1,-1],"split_conditions":[1E0,2E-1,1E0,1E1,4.8E1,2.5E-1,2.42011E-1,2E0,2.0702021E-1,1.3E1,1E0,-2.0111334E-1,7.1E1,1E0,-2.418485E-1,5E0,1.7E1,1E0,2.3831372E-1,2.1979229E-1,7.37E2,-2.3129745E-1,2.1411167E-1,6.666667E-1,5E0,1.25E0,3.4E1,1E0,2E1,1E0,4.65E1,1.0989052E-1,2.297446E-1,2.5E-1,7E0,1.7E1,5.375E0,3.4E1,2E1,6.682353E1,3.3006E-1,3.4E0,1.2E1,3.7E2,2.4714771E-1,1.293E3,4.7E1,-2.197324E-1,2.25E0,7E0,2.3266666E-1,1.3E1,-2.64818E-1,9E0,1.0434783E1,1.575E1,2.5454545E0,2.3063944E-1,1.1039791E-1,3.8E1,1.17E2,4.7E1,2.4619047E1,1.7E1,2.7E1,4.1E1,7.35E1,8.01E2,-1.0051899E-2,3.15E1,1.2E1,6.3724644E-2,2.2152577E-1,2.2678283E-1,-2.5046602E-2,-2.140084E-1,2.251046E-1,2.0503283E-1,1.0898415E-1,-1.5936713E-1,1.4103593E-1,9.421124E-2,2.2608626E-1,-2.0667437E-1,1.2251174E-1,-4.991298E-2,-1.3180043E-1,2.7359454E-2,-1.2463578E-1,-2.3851798E-1,-3.7724927E-2,8.275767E-2,-2.0321792E-2,-1.6350465E-1,1.1517179E-1,9.380694E-2,2.2756179E-1,1.1902881E-1,1.7400716E-1,1.4197032E-1,-6.624323E-2,-7.919601E-4,2.1476303E-1,3.0653913E-2,-1.6486818E-1,1.970134E-1,-3.1855345E-2],"split_indices":[0,3,2,7,5,9,0,8,0,5,1,0,5,5,0,5,8,4,0,0,5,0,0,3,8,9,8,2,6,1,3,0,0,9,8,5,3,5,7,9,0,9,7,8,0,5,9,0,9,5,0,8,0,6,9,3,9,0,0,3,3,8,3,9,8,8,3,5,0,9,6,0,0,0,0,0,0,0,0,0,0,0,0,0,0,0,0,0,0,0,0,0,0,0,0,0,0,0,0,0,0,0,0,0,0,0,0],"split_type":[0,0,0,0,0,0,0,0,0,0,0,0,0,0,0,0,0,0,0,0,0,0,0,0,0,0,0,0,0,0,0,0,0,0,0,0,0,0,0,0,0,0,0,0,0,0,0,0,0,0,0,0,0,0,0,0,0,0,0,0,0,0,0,0,0,0,0,0,0,0,0,0,0,0,0,0,0,0,0,0,0,0,0,0,0,0,0,0,0,0,0,0,0,0,0,0,0,0,0,0,0,0,0,0,0,0,0],"sum_hessian":[4.5359287E3,3.385245E3,1.1506833E3,8.096853E2,2.5755598E3,4.1905087E2,7.3163245E2,8.011061E2,8.5792675E0,4.176053E2,2.1579546E3,7.9723983E0,4.110785E2,2.4216295E1,7.768898E2,1.7178734E2,2.4581796E2,2.1183416E3,3.9612946E1,1.8500677E2,2.260717E2,1.8060143E1,6.156152E0,9.8587685E1,7.3199646E1,1.2304018E2,1.2277779E2,1.3436459E3,7.746957E2,1.951963E2,3.0875404E1,3.500613E0,9.508707E1,2.5475134E1,4.7724514E1,5.1200737E1,7.183944E1,8.4007454E1,3.8770336E1,1.3331631E3,1.0482887E1,7.3163763E2,4.3057995E1,1.7957706E2,1.561924E1,1.6837154E1,1.403825E1,8.67388E0,1.6801254E1,1.6150944E1,3.157357E1,1.868726E1,3.2513477E1,3.373257E1,3.8106865E1,6.190601E1,2.210144E1,3.4236286E1,4.5340495E0,1.0893096E3,2.4385349E2,1.8994907E2,5.416886E2,1.5311202E1,2.7746794E1,1.715199E2,8.057162E0,1.1469515E1,5.3676405E0,6.340806E0,7.697444E0,4.744857E0,1.2056397E1,1.1483889E1,4.6670547E0,6.487463E0,1.2199798E1,2.0684034E1,1.3048538E1,1.4311468E1,2.3795395E1,1.6859884E1,4.5046127E1,1.266922E1,9.43222E0,3.786569E2,7.106527E2,1.8128908E2,6.2564404E1,3.905425E1,1.5089482E2,1.460656E2,3.95623E2,3.44114E0,1.1870062E1,3.6196322E0,2.4127161E1,4.9750786E1,1.2176911E2,4.0736337E0,3.9835281E0,3.027174E0,8.442341E0,3.1404953E0,3.2003105E0,4.2001576E0,3.497286E0],"tree_param":{"num_deleted":"0","num_feature":"10","num_nodes":"107","size_leaf_vector":"1"}},{"base_weights":[6.570577E-3,-3.1269956E-1,1.023754E0,-1.1218508E0,-8.797868E-2,7.85628E-1,2.3286675E-1,-1.145429E0,1.7036846E-1,4.199058E-1,-2.5832692E-1,-1.816394E-1,8.1729215E-1,-5.4871184E-1,-2.3275013E-1,1.0009451E0,2.6330954E-1,-5.9775215E-1,-1.4919761E-1,9.650436E-1,6.1590225E-1,-2.2104517E-1,2.0186584E-1,2.1261816E-1,7.310445E-1,1.701624E-1,1.320753E0,-1.2452326E0,-2.6437286E-1,-6.506242E-4,-4.330861E-1,1.0124406E0,8.5395324E-1,6.768238E-1,1.7678048E-1,2.356923E-1,2.217046E-1,-1.0838738E-2,6.967703E-1,7.13786E-1,3.0790058E-1,-4.2274383E-1,-2.5868034E-1,6.4082575E-1,-5.84674E-1,-1.4449911E-1,3.049036E-1,-5.184916E-1,7.254236E-1,9.3462133E-1,2.2901492E-1,3.4803975E-1,9.283483E-1,3.7073573E-1,7.491697E-1,-8.3252616E-2,1.4766018E-1,-2.652199E-1,2.0745523E-1,-6.662833E-1,1.7425378E-1,5.435696E-1,1.0616186E0,-7.786631E-2,2.597345E-1,-2.0047419E-1,4.7712296E-2,-1.2596321E-1,1.0563505E0,-1.2900327E0,-3.4671158E-1,-2.4607418E-1,4.7775635E-1,1.2635535E0,2.1894091E-1,-6.7384386E-1,-5.4952275E-2,1.7905935E0,2.6420075E-1,2.1288054E-1,6.2562805E-1,-7.085995E-2,1.5274893E-1,6.918138E-1,2.0077196E-1,-1.3025966E-1,6.26671E-1,9.8401964E-1,6.484443E-1,9.2694364E-2,-4.699228E-1,7.306214E-2,-2.0771371E-1,8.59194E-2,-1.2912446E-1,1.3274448E-1,-1.0517061E-1,2.3582737E-1,1.0916542E-1,-2.6341778E-1,1.1757622E-1,1.1228993E-1,3.0703285E-1,-2.6459703E-1,-1.2196819E-1,8.238436E-2,-1.4399229E-1,5.9130657E-2,-9.021146E-2,7.04786E-2,2.3023398E-1,2.8840074E-1,5.469013E-2,2.1946637E-2,1.4144473E-1,-1.7633E-1,-8.198085E-2,1.2723634E-1,-4.9148336E-2,4.1159526E-1,1.9078414E-1,1.6928099E-1,-1.4221527E-1,8.282862E-2,1.7451213E-1,2.1274598E-1,6.824928E-2,-2.0250545E-1,7.2529055E-2,2.0152345E-1,5.49944E-2,1.1911967E-1,2.0957597E-1,1.13452986E-1,2.1676455E-1,-1.872738E-1,7.876108E-3],"categories":[],"categories_nodes":[],"categories_segments":[],"categories_sizes":[],"default_left":[0,0,0,0,0,0,0,0,0,0,0,0,0,0,0,0,0,0,0,0,0,0,0,0,0,0,0,0,0,0,0,0,0,0,0,0,0,0,0,0,0,0,0,0,0,0,0,0,0,0,0,0,0,0,0,0,0,0,0,0,0,0,0,0,0,0,0,0,0,0,0,0,0,0,0,0,0,0,0,0,0,0,0,0,0,0,0,0,0,0,0,0,0,0,0,0,0,0,0,0,0,0,0,0,0,0,0,0,0,0,0,0,0,0,0,0,0,0,0,0,0,0,0,0,0,0,0,0,0,0,0,0,0,0,0,0,0],"id":6,"left_children":[1,3,5,7,9,11,-1,13,-1,15,17,-1,19,21,-1,23,25,27,29,31,33,-1,-1,-1,35,37,39,41,43,45,47,49,51,53,55,57,-1,59,61,63,-1,65,-1,67,69,71,73,75,77,79,-1,81,83,85,87,89,-1,-1,-1,91,93,95,97,-1,-1,-1,-1,99,101,103,105,107,109,111,113,115,117,119,121,-1,123,-1,-1,125,-1,127,129,131,133,-1,135,-1,-1,-1,-1,-1,-1,-1,-1,-1,-1,-1,-1,-1,-1,-1,-1,-1,-1,-1,-1,-1,-1,-1,-1,-1,-1,-1,-1,-1,-1,-1,-1,-1,-1,-1,-1,-1,-1,-1,-1,-1,-1,-1,-1,-1,-1],"loss_changes":[1.3543435E3,5.7705554E2,3.2435913E1,3.307782E1,2.1512604E2,2.0742157E1,0E0,6.8189087E0,0E0,5.656704E1,6.8869286E1,0E0,1.0313522E1,2.0374725E1,0E0,1.440918E0,4.8369152E1,9.736626E1,5.9463585E1,2.3950195E-1,4.104389E0,0E0,0E0,0E0,4.965275E0,4.3334503E1,4.1844177E0,5.5370636E0,8.7365364E1,4.077563E1,4.8301826E1,3.9120483E-1,2.2775192E0,2.784935E0,3.0679562E0,1.8099112E1,0E0,4.127565E1,5.9228477E0,8.510017E0,0E0,4.065051E0,0E0,2.5270596E1,3.6838493E1,3.998456E1,2.4194128E1,3.2490913E1,1.607003E1,3.1306992E0,0E0,3.3239384E0,3.7072754E-1,3.725692E0,1.9849701E0,3.3828962E0,0E0,0E0,0E0,2.9151112E1,5.5828983E1,1.1135809E1,1.3773041E0,0E0,0E0,0E0,0E0,2.5110254E1,1.1288219E1,4.4095612E-1,4.7717216E1,6.041939E1,7.095436E0,3.8861275E0,1.45182905E1,1.8189896E1,1.5250967E1,2.7438736E-1,1.4610637E1,0E0,1.2277145E0,0E0,0E0,1.938098E0,0E0,4.9061003E0,2.2661862E0,1.5353584E-1,2.231598E0,0E0,2.2381725E0,0E0,0E0,0E0,0E0,0E0,0E0,0E0,0E0,0E0,0E0,0E0,0E0,0E0,0E0,0E0,0E0,0E0,0E0,0E0,0E0,0E0,0E0,0E0,0E0,0E0,0E0,0E0,0E0,0E0,0E0,0E0,0E0,0E0,0E0,0E0,0E0,0E0,0E0,0E0,0E0,0E0,0E0,0E0,0E0,0E0,0E0],"parents":[2147483647,0,0,1,1,2,2,3,3,4,4,5,5,7,7,9,9,10,10,12,12,13,13,15,15,16,16,17,17,18,18,19,19,20,20,24,24,25,25,26,26,27,27,28,28,29,29,30,30,31,31,32,32,33,33,34,34,35,35,37,37,38,38,39,39,41,41,43,43,44,44,45,45,46,46,47,47,48,48,49,49,51,51,52,52,53,53,54,54,55,55,59,59,60,60,61,61,62,62,67,67,68,68,69,69,70,70,71,71,72,72,73,73,74,74,75,75,76,76,77,77,78,78,80,80,83,83,85,85,86,86,87,87,88,88,90,90],"right_children":[2,4,6,8,10,12,-1,14,-1,16,18,-1,20,22,-1,24,26,28,30,32,34,-1,-1,-1,36,38,40,42,44,46,48,50,52,54,56,58,-1,60,62,64,-1,66,-1,68,70,72,74,76,78,80,-1,82,84,86,88,90,-1,-1,-1,92,94,96,98,-1,-1,-1,-1,100,102,104,106,108,110,112,114,116,118,120,122,-1,124,-1,-1,126,-1,128,130,132,134,-1,136,-1,-1,-1,-1,-1,-1,-1,-1,-1,-1,-1,-1,-1,-1,-1,-1,-1,-1,-1,-1,-1,-1,-1,-1,-1,-1,-1,-1,-1,-1,-1,-1,-1,-1,-1,-1,-1,-1,-1,-1,-1,-1,-1,-1,-1,-1],"split_conditions":[1E0,2E-1,1E0,1E1,8.9E1,2.5E-1,2.3286675E-1,2E0,1.7036846E-1,1E1,3.5E0,-1.816394E-1,1.75E1,1E0,-2.3275013E-1,7E0,6.6E1,8.9E1,6.657143E1,5.7E1,7.7375E1,-2.2104517E-1,2.0186584E-1,2.1261816E-1,7E0,1.0166667E1,4.3E1,1.3333333E1,1.55E2,1.06E2,2.46E2,1.8E1,5.8333335E0,3.7E1,1.28375E2,2.5E-1,2.217046E-1,1E1,7.01E1,1.4E0,3.0790058E-1,1.4E0,-2.5868034E-1,7.5E1,1.54E2,8.661539E1,1.79E2,2.9E2,3.43E2,3.2E0,2.2901492E-1,5.4E1,8.142858E0,9E0,1.46E2,4.82E2,1.4766018E-1,-2.652199E-1,2.0745523E-1,3.5384614E0,6.2E1,2.2310345E1,7.8E1,-7.786631E-2,2.597345E-1,-2.0047419E-1,4.7712296E-2,7.5E-1,1.13E2,2.5E0,2.58E2,2E1,4.73E2,5.6E1,3.18E2,6.5333336E1,6.21E2,1.34E2,5.45E2,2.1288054E-1,2.7E1,-7.085995E-2,1.5274893E-1,1.35E1,2.0077196E-1,2.58E2,2.8E1,2.0657143E1,9.8166664E1,9.2694364E-2,7.22E2,7.306214E-2,-2.0771371E-1,8.59194E-2,-1.2912446E-1,1.3274448E-1,-1.0517061E-1,2.3582737E-1,1.0916542E-1,-2.6341778E-1,1.1757622E-1,1.1228993E-1,3.0703285E-1,-2.6459703E-1,-1.2196819E-1,8.238436E-2,-1.4399229E-1,5.9130657E-2,-9.021146E-2,7.04786E-2,2.3023398E-1,2.8840074E-1,5.469013E-2,2.1946637E-2,1.4144473E-1,-1.7633E-1,-8.198085E-2,1.2723634E-1,-4.9148336E-2,4.1159526E-1,1.9078414E-1,1.6928099E-1,-1.4221527E-1,8.282862E-2,1.7451213E-1,2.1274598E-1,6.824928E-2,-2.0250545E-1,7.2529055E-2,2.0152345E-1,5.49944E-2,1.1911967E-1,2.0957597E-1,1.13452986E-1,2.1676455E-1,-1.872738E-1,7.876108E-3],"split_indices":[0,3,2,7,5,9,0,8,0,5,9,0,3,5,0,5,8,8,3,5,3,0,0,0,8,9,3,3,5,8,9,8,9,8,9,9,0,8,9,9,0,9,0,3,8,9,5,8,9,3,0,8,3,6,5,5,0,0,0,3,5,3,5,0,0,0,0,9,8,9,5,3,5,3,8,9,5,8,5,0,5,0,0,9,0,5,3,3,9,0,5,0,0,0,0,0,0,0,0,0,0,0,0,0,0,0,0,0,0,0,0,0,0,0,0,0,0,0,0,0,0,0,0,0,0,0,0,0,0,0,0,0,0,0,0,0,0],"split_type":[0,0,0,0,0,0,0,0,0,0,0,0,0,0,0,0,0,0,0,0,0,0,0,0,0,0,0,0,0,0,0,0,0,0,0,0,0,0,0,0,0,0,0,0,0,0,0,0,0,0,0,0,0,0,0,0,0,0,0,0,0,0,0,0,0,0,0,0,0,0,0,0,0,0,0,0,0,0,0,0,0,0,0,0,0,0,0,0,0,0,0,0,0,0,0,0,0,0,0,0,0,0,0,0,0,0,0,0,0,0,0,0,0,0,0,0,0,0,0,0,0,0,0,0,0,0,0,0,0,0,0,0,0,0,0,0,0],"sum_hessian":[4.1683525E3,3.173087E3,9.952654E2,6.8882965E2,2.4842573E3,3.7189926E2,6.2336615E2,6.8111255E2,7.717096E0,6.235902E2,1.8606671E3,6.316661E0,3.6558258E2,2.1211767E1,6.5990076E2,1.3124036E2,4.9234982E2,4.5159433E2,1.4090729E3,2.0868623E2,1.5689636E2,1.5843343E1,5.3684244E0,1.0428865E2,2.695171E1,4.5355814E2,3.8791706E1,1.5256038E2,2.9903394E2,9.256967E2,4.833761E2,1.4058963E2,6.809659E1,1.3730592E2,1.9590443E1,1.2358483E1,1.4593227E1,3.382702E2,1.1528791E2,1.1406108E1,2.73856E1,8.981266E0,1.4357912E2,7.789508E1,2.2113887E2,6.297505E2,2.959462E2,4.5070267E2,3.267343E1,9.367504E1,4.6914597E1,9.457875E0,5.8638714E1,2.7419859E1,1.09886055E2,1.3971946E1,5.6184964E0,3.96968E0,8.3888035E0,7.391713E1,2.643531E2,8.2947784E1,3.234013E1,4.0680194E0,7.338088E0,4.51136E0,4.469906E0,2.7621176E1,5.0273903E1,5.4669266E1,1.664696E2,5.418974E2,8.785312E1,2.3226538E1,2.7271967E2,3.372289E2,1.1347377E2,9.001852E0,2.367158E1,6.424606E1,2.942898E1,3.5714955E0,5.88638E0,1.664889E1,4.1989822E1,9.4373045E0,1.7982555E1,3.0350933E1,7.9535126E1,5.705768E0,8.266178E0,1.9606552E1,5.431058E1,2.0193745E2,6.2415634E1,7.491071E1,8.037071E0,2.5291595E1,7.0485334E0,1.003374E1,1.7587435E1,2.579E1,2.4483902E1,5.1241806E1,3.4274614E0,5.4860855E1,1.1160875E2,1.4863742E2,3.9325998E2,7.534931E1,1.2503813E1,1.9292887E1,3.9336498E0,2.2387355E2,4.8846107E1,1.8736862E2,1.4986028E2,2.4043135E1,8.943063E1,5.715566E0,3.2862864E0,1.490562E1,8.765961E0,1.7294384E1,1.2134596E1,7.0913677E0,9.557522E0,3.0047657E0,6.432538E0,7.737071E0,1.0245483E1,5.743493E0,2.4607439E1,6.897683E1,1.0558297E1,3.8769443E0,4.3892336E0],"tree_param":{"num_deleted":"0","num_feature":"10","num_nodes":"137","size_leaf_vector":"1"}},{"base_weights":[1.7599478E-2,-2.6055306E-1,9.722643E-1,-1.090172E0,-5.982496E-2,7.3375446E-1,2.2589901E-1,-1.1130875E0,1.5380047E-1,6.2720174E-1,-1.4703614E-1,-1.7145601E-1,7.635561E-1,-6.0842425E-1,-2.258197E-1,8.971597E-1,4.0147552E-1,-1.7200136E-1,2.2985788E-1,9.3033886E-1,5.495989E-1,-2.135055E-1,1.8640773E-1,2.2307573E-1,7.679983E-1,-2.1334891E-1,5.727229E-1,-2.1102169E-1,4.9784347E-1,1.9866374E-1,8.005542E-1,4.9901605E-1,2.2919324E-1,-2.0594552E-1,9.598081E-1,3.4090334E-1,7.615881E-1,-2.2547117E-1,3.1752095E-1,7.72154E-1,-1.5170857E-1,3.1052762E-1,8.8255614E-1,2.0493338E-1,5.709804E-1,-3.0287358E-1,7.44E-1,7.761723E-2,1.9783948E-1,-2.4558623E-1,5.2276206E-1,8.176147E-1,-5.2055497E-2,-5.584828E-2,-3.5072193E-1,6.153633E-1,3.3592424E-1,-6.725401E-1,1.5697293E-1,-3.020889E-2,1.632715E-1,3.426515E-2,9.2010796E-1,-9.691605E-2,6.312633E-1,6.410179E-1,1.6052037E-1,4.9829036E-2,1.9364966E-1,9.6978165E-2,-1.6535124E-1,1.7942181E-1,3.281897E-2,2.2457409E-1,1.23177946E-1,-3.344664E-2,6.600777E-2,-1.7195487E-1,-4.70647E-2,5.952322E-2,2.2669356E-1,-1.9355148E-1,3.83752E-2,-1.3705309E-1,8.8968754E-2,1.612799E-1,2.2255671E-1,8.615046E-2,-1.097304E-1,1.8882072E-1,-2.1083808E-2,1.09967425E-1,1.7138241E-1,1.2316253E-1,-1.1361207E-1],"categories":[],"categories_nodes":[],"categories_segments":[],"categories_sizes":[],"default_left":[0,0,0,0,0,0,0,0,0,0,0,0,0,0,0,0,0,0,0,0,0,0,0,0,0,0,0,0,0,0,0,0,0,0,0,0,0,0,0,0,0,0,0,0,0,0,0,0,0,0,0,0,0,0,0,0,0,0,0,0,0,0,0,0,0,0,0,0,0,0,0,0,0,0,0,0,0,0,0,0,0,0,0,0,0,0,0,0,0,0,0,0,0,0,0],"id":7,"left_children":[1,3,5,7,9,11,-1,13,-1,15,17,-1,19,21,-1,23,25,27,-1,29,31,-1,-1,-1,33,-1,35,37,39,-1,41,43,-1,45,47,49,51,53,-1,55,57,59,61,63,65,-1,67,-1,-1,69,71,73,-1,75,77,79,-1,81,83,-1,-1,-1,85,87,89,91,93,-1,-1,-1,-1,-1,-1,-1,-1,-1,-1,-1,-1,-1,-1,-1,-1,-1,-1,-1,-1,-1,-1,-1,-1,-1,-1,-1,-1],"loss_changes":[1.01749243E3,4.940675E2,3.1591919E1,2.5481567E1,1.4330766E2,1.707637E1,0E0,3.9298706E0,0E0,1.605803E1,6.8866394E1,0E0,1.1639191E1,1.49549465E1,0E0,2.5787659E0,3.795988E1,5.453919E1,0E0,7.569885E-1,4.0012665E0,0E0,0E0,0E0,1.5100925E1,0E0,5.593296E0,5.152202E1,2.0596495E1,0E0,2.4261284E0,2.8779793E0,0E0,1.8465052E1,7.3897934E-1,6.7226524E0,4.3838844E0,4.1490746E1,0E0,1.0487656E1,5.726535E0,2.732586E0,1.3652878E0,3.842266E0,3.1494713E0,0E0,7.30031E-1,0E0,0E0,6.9021053E0,6.232074E0,3.5763626E0,0E0,3.577791E1,6.581064E1,1.1289089E1,0E0,3.5541081E0,5.8238363E0,0E0,0E0,0E0,2.842598E-1,4.5434437E0,2.9371548E0,1.4247475E0,6.262578E0,0E0,0E0,0E0,0E0,0E0,0E0,0E0,0E0,0E0,0E0,0E0,0E0,0E0,0E0,0E0,0E0,0E0,0E0,0E0,0E0,0E0,0E0,0E0,0E0,0E0,0E0,0E0,0E0],"parents":[2147483647,0,0,1,1,2,2,3,3,4,4,5,5,7,7,9,9,10,10,12,12,13,13,15,15,16,16,17,17,19,19,20,20,24,24,26,26,27,27,28,28,30,30,31,31,33,33,34,34,35,35,36,36,37,37,39,39,40,40,41,41,42,42,43,43,44,44,46,46,49,49,50,50,51,51,53,53,54,54,55,55,57,57,58,58,62,62,63,63,64,64,65,65,66,66],"right_children":[2,4,6,8,10,12,-1,14,-1,16,18,-1,20,22,-1,24,26,28,-1,30,32,-1,-1,-1,34,-1,36,38,40,-1,42,44,-1,46,48,50,52,54,-1,56,58,60,62,64,66,-1,68,-1,-1,70,72,74,-1,76,78,80,-1,82,84,-1,-1,-1,86,88,90,92,94,-1,-1,-1,-1,-1,-1,-1,-1,-1,-1,-1,-1,-1,-1,-1,-1,-1,-1,-1,-1,-1,-1,-1,-1,-1,-1,-1,-1],"split_conditions":[1E0,2E-1,1E0,1E1,9.5E0,2.5E-1,2.2589901E-1,2E0,1.5380047E-1,1.3E1,1E0,-1.7145601E-1,1.775E1,1E0,-2.258197E-1,1E0,1E0,1.48E2,2.2985788E-1,5.6E1,1E0,-2.135055E-1,1.8640773E-1,2.2307573E-1,1E0,-2.1334891E-1,1E1,1E0,1.32E2,1.9866374E-1,5.8333335E0,3.8E1,2.2919324E-1,2.5E-1,2E0,5.5E0,1.71E2,4.15E1,3.1752095E-1,1.06E2,3.1E1,1.2E1,6E1,4.9E2,7.7375E1,-3.0287358E-1,7.090909E0,7.761723E-2,1.9783948E-1,3.4E0,2E0,6.2E0,-5.2055497E-2,3.7117645E1,4.3E1,2.46E2,3.3592424E-1,6.67E2,1.8E2,-3.020889E-2,1.632715E-1,3.426515E-2,3.2666668E1,2.62E1,3.2E1,4.65E1,1.2E1,4.9829036E-2,1.9364966E-1,9.6978165E-2,-1.6535124E-1,1.7942181E-1,3.281897E-2,2.2457409E-1,1.23177946E-1,-3.344664E-2,6.600777E-2,-1.7195487E-1,-4.70647E-2,5.952322E-2,2.2669356E-1,-1.9355148E-1,3.83752E-2,-1.3705309E-1,8.8968754E-2,1.612799E-1,2.2255671E-1,8.615046E-2,-1.097304E-1,1.8882072E-1,-2.1083808E-2,1.09967425E-1,1.7138241E-1,1.2316253E-1,-1.1361207E-1],"split_indices":[0,3,2,7,3,9,0,8,0,5,1,0,3,5,0,5,9,9,0,5,1,0,0,0,8,0,8,2,3,0,9,8,0,9,8,9,5,3,0,8,8,6,5,5,3,0,9,0,0,3,8,3,0,9,8,9,0,5,9,0,0,0,9,3,8,9,6,0,0,0,0,0,0,0,0,0,0,0,0,0,0,0,0,0,0,0,0,0,0,0,0,0,0,0,0],"split_type":[0,0,0,0,0,0,0,0,0,0,0,0,0,0,0,0,0,0,0,0,0,0,0,0,0,0,0,0,0,0,0,0,0,0,0,0,0,0,0,0,0,0,0,0,0,0,0,0,0,0,0,0,0,0,0,0,0,0,0,0,0,0,0,0,0,0,0,0,0,0,0,0,0,0,0,0,0,0,0,0,0,0,0,0,0,0,0,0,0,0,0,0,0,0,0],"sum_hessian":[3.8297964E3,2.9662673E3,8.63529E2,5.770131E2,2.3892544E3,3.4533817E2,5.1819086E2,5.703841E2,6.6290283E0,2.684313E2,2.120823E3,5.8390684E0,3.394991E2,1.8738897E1,5.516452E2,1.20884544E2,1.4754675E2,2.0816018E3,3.9221134E1,1.8890031E2,1.5059879E2,1.4672939E1,4.0659585E0,4.210774E1,7.87768E1,1.4865496E1,1.3268126E2,1.9676649E3,1.1393697E2,1.2270325E2,6.6197075E1,1.4051712E2,1.008166E1,1.2949589E1,6.582722E1,6.0826164E1,7.185509E1,1.9528511E3,1.4813821E1,7.997444E1,3.3962532E1,1.0175747E1,5.6021328E1,2.8381937E1,1.12135185E2,5.197108E0,7.752481E0,3.9129078E0,6.1914307E1,1.4313873E1,4.651229E1,6.83097E1,3.5453873E0,8.3010864E2,1.1227424E3,6.962318E1,1.0351265E1,1.2199624E1,2.1762909E1,5.6873803E0,4.488367E0,3.0884526E0,5.2932873E1,1.706926E1,1.1312676E1,9.5310486E1,1.6824697E1,3.0758781E0,4.676603E0,6.4156528E0,7.89822E0,2.2024118E1,2.448817E1,2.5363148E1,4.2946556E1,6.446108E2,1.8549792E2,2.0629059E2,9.1645184E2,4.4131992E1,2.5491186E1,9.004751E0,3.1948721E0,5.191987E0,1.6570923E1,3.6548737E1,1.6384136E1,7.8943725E0,9.174888E0,7.742975E0,3.5697012E0,6.950326E1,2.580723E1,1.0449532E1,6.3751664E0],"tree_param":{"num_deleted":"0","num_feature":"10","num_nodes":"95","size_leaf_vector":"1"}},{"base_weights":[-4.6131685E-3,-2.4678288E-1,9.1729873E-1,-1.0621916E0,-7.402927E-2,6.5219134E-1,2.2050114E-1,-1.0857942E0,1.4258374E-1,5.268783E-1,-1.5184328E-1,-1.7736876E-1,6.845529E-1,-5.176071E-1,-2.2045898E-1,9.173106E-1,3.4510562E-1,-1.7184353E-1,2.2393735E-1,8.5714835E-1,4.005889E-1,-2.0406158E-1,1.7793605E-1,2.1661723E-1,7.7350396E-1,-1.4762029E-1,5.595323E-1,-1.8450572E-1,2.9238495E-1,9.1925454E-1,6.8541974E-1,7.497901E-1,3.1350812E-1,-6.8093576E-2,2.0273848E-1,-2.3333625E-1,3.8042495E-1,8.6022055E-1,3.4303603E-1,-4.1859484E-1,-1.0158859E-1,9.571216E-1,7.2768426E-1,5.5522484E-1,9.818601E-1,1.8769293E-1,4.5063165E-1,-7.414415E-2,4.5517063E-1,-2.5585607E-1,1.9950359E-1,9.701446E-2,8.340372E-1,6.6098385E-3,1.9003461E-1,-2.937884E-1,7.457225E-1,-1.1209255E0,-2.2161739E-1,5.447332E-1,-1.8493262E-1,8.8662744E-1,2.194378E-1,1.3522263E-2,8.356765E-1,-5.7525676E-2,6.353149E-1,2.1359609E-1,9.7479306E-2,5.104012E-3,1.4227057E-1,3.2610115E-1,-3.5403612E-1,-6.9486514E-2,5.27078E-1,7.900229E-2,-2.1082075E-1,1.1507126E-1,2.0427807E-1,-1.9166856E-1,2.1777605E-1,4.7238104E-2,1.8415041E-1,-9.479564E-2,-2.4658321E-1,1.0092608E-2,-7.62275E-2,7.834423E-2,2.9626352E-1,-8.1737086E-2,-4.5310664E-3,2.0399967E-1,1.2919548E-1,9.0048864E-2,1.8315065E-1,1.4037703E-1,-9.338951E-3,-5.9628326E-2,1.7413986E-1,-1.735787E-1,7.606231E-2,1.5695573E-1,6.402578E-2],"categories":[],"categories_nodes":[],"categories_segments":[],"categories_sizes":[],"default_left":[0,0,0,0,0,0,0,0,0,0,0,0,0,0,0,0,0,0,0,0,0,0,0,0,0,0,0,0,0,0,0,0,0,0,0,0,0,0,0,0,0,0,0,0,0,0,0,0,0,0,0,0,0,0,0,0,0,0,0,0,0,0,0,0,0,0,0,0,0,0,0,0,0,0,0,0,0,0,0,0,0,0,0,0,0,0,0,0,0,0,0,0,0,0,0,0,0,0,0,0,0,0,0],"id":8,"left_children":[1,3,5,7,9,11,-1,13,-1,15,17,-1,19,21,-1,23,25,27,-1,29,31,-1,-1,-1,33,35,37,39,-1,41,43,45,47,49,-1,-1,51,53,55,57,59,61,63,65,67,-1,69,71,73,-1,-1,75,77,-1,-1,79,81,83,85,87,89,91,-1,-1,93,-1,95,-1,-1,-1,-1,97,99,-1,101,-1,-1,-1,-1,-1,-1,-1,-1,-1,-1,-1,-1,-1,-1,-1,-1,-1,-1,-1,-1,-1,-1,-1,-1,-1,-1,-1,-1],"loss_changes":[7.943598E2,3.9685156E2,3.5624268E1,2.14104E1,1.0885395E2,1.5891296E1,0E0,3.9904175E0,0E0,1.8627106E1,5.2588768E1,0E0,1.4414902E1,1.1953991E1,0E0,1.1693192E0,1.9494762E1,4.2250088E1,0E0,1.3580627E0,3.2835922E0,0E0,0E0,0E0,9.88936E0,3.0849274E1,8.052418E0,3.906053E1,0E0,2.7535248E-1,1.5174217E0,8.401499E-1,5.214222E0,1.6407162E1,0E0,0E0,4.8007994E0,3.9131966E0,1.9763832E1,7.260595E1,8.03068E1,1.00364685E-1,1.816966E0,2.8447123E0,1.1852646E-1,0E0,1.1543074E0,3.0401132E0,4.1784716E0,0E0,0E0,8.821482E0,1.1362934E-1,0E0,0E0,2.8831455E1,3.9717941E0,7.7548676E0,1.792354E1,2.3828945E1,4.7906754E1,1.8288383E0,0E0,0E0,2.8209305E-1,0E0,1.6819391E0,0E0,0E0,0E0,0E0,4.088989E0,6.3083906E0,0E0,3.1583595E0,0E0,0E0,0E0,0E0,0E0,0E0,0E0,0E0,0E0,0E0,0E0,0E0,0E0,0E0,0E0,0E0,0E0,0E0,0E0,0E0,0E0,0E0,0E0,0E0,0E0,0E0,0E0,0E0],"parents":[2147483647,0,0,1,1,2,2,3,3,4,4,5,5,7,7,9,9,10,10,12,12,13,13,15,15,16,16,17,17,19,19,20,20,24,24,25,25,26,26,27,27,29,29,30,30,31,31,32,32,33,33,36,36,37,37,38,38,39,39,40,40,41,41,42,42,43,43,44,44,46,46,47,47,48,48,51,51,52,52,55,55,56,56,57,57,58,58,59,59,60,60,61,61,64,64,66,66,71,71,72,72,74,74],"right_children":[2,4,6,8,10,12,-1,14,-1,16,18,-1,20,22,-1,24,26,28,-1,30,32,-1,-1,-1,34,36,38,40,-1,42,44,46,48,50,-1,-1,52,54,56,58,60,62,64,66,68,-1,70,72,74,-1,-1,76,78,-1,-1,80,82,84,86,88,90,92,-1,-1,94,-1,96,-1,-1,-1,-1,98,100,-1,102,-1,-1,-1,-1,-1,-1,-1,-1,-1,-1,-1,-1,-1,-1,-1,-1,-1,-1,-1,-1,-1,-1,-1,-1,-1,-1,-1,-1],"split_conditions":[1E0,2E-1,1E0,1E1,3.7E1,5E-1,2.2050114E-1,2E0,1.4258374E-1,8E0,1E0,-1.7736876E-1,2.2666666E1,1E0,-2.2045898E-1,1E0,8E0,1E0,2.2393735E-1,9.5E1,6.9333334E0,-2.0406158E-1,1.7793605E-1,2.1661723E-1,2E0,8.75E-1,2.2E1,3.6E1,2.9238495E-1,1.1E1,9.6E1,1.42E2,2.9E1,2.5E-1,2.0273848E-1,-2.3333625E-1,1.4583333E1,4.6666665E0,2.2E1,5.5E0,9.6E1,1.8E1,1.175E1,6E0,2.27E2,1.8769293E-1,1.85E2,3.188889E1,1.42E2,-2.5585607E-1,1.9950359E-1,5.375E0,3.7117645E1,6.6098385E-3,1.9003461E-1,7.090909E0,1.72E1,1.15E1,2.1454546E1,7.9E1,1.08E2,3.2E0,2.194378E-1,1.3522263E-2,1.8E0,-5.7525676E-2,2.0657143E1,2.1359609E-1,9.7479306E-2,5.104012E-3,1.4227057E-1,2.6E1,3.18E2,-6.9486514E-2,4.3E1,7.900229E-2,-2.1082075E-1,1.1507126E-1,2.0427807E-1,-1.9166856E-1,2.1777605E-1,4.7238104E-2,1.8415041E-1,-9.479564E-2,-2.4658321E-1,1.0092608E-2,-7.62275E-2,7.834423E-2,2.9626352E-1,-8.1737086E-2,-4.5310664E-3,2.0399967E-1,1.2919548E-1,9.0048864E-2,1.8315065E-1,1.4037703E-1,-9.338951E-3,-5.9628326E-2,1.7413986E-1,-1.735787E-1,7.606231E-2,1.5695573E-1,6.402578E-2],"split_indices":[0,3,2,7,5,9,0,8,0,5,1,0,3,5,0,5,8,2,0,5,9,0,0,0,8,9,5,8,0,3,8,5,9,9,0,0,9,3,8,9,5,8,3,9,8,0,5,3,5,0,0,3,9,0,0,9,3,3,3,8,8,3,0,0,9,0,3,0,0,0,0,3,8,0,3,0,0,0,0,0,0,0,0,0,0,0,0,0,0,0,0,0,0,0,0,0,0,0,0,0,0,0,0],"split_type":[0,0,0,0,0,0,0,0,0,0,0,0,0,0,0,0,0,0,0,0,0,0,0,0,0,0,0,0,0,0,0,0,0,0,0,0,0,0,0,0,0,0,0,0,0,0,0,0,0,0,0,0,0,0,0,0,0,0,0,0,0,0,0,0,0,0,0,0,0,0,0,0,0,0,0,0,0,0,0,0,0,0,0,0,0,0,0,0,0,0,0,0,0,0,0,0,0,0,0,0,0,0,0],"sum_hessian":[3.5560027E3,2.8168096E3,7.3919305E2,4.9154337E2,2.3252664E3,3.0587766E2,4.333154E2,4.8547656E2,6.0667896E0,2.6592532E2,2.059341E3,5.7555103E0,3.0012216E2,1.461429E1,4.7086227E2,8.319119E1,1.8273413E2,2.0283021E3,3.1038874E1,1.8541003E2,1.1471211E2,1.0970479E1,3.6438115E0,3.560982E1,4.758137E1,5.5504105E1,1.2723002E2,2.0135833E3,1.4718802E1,1.3296857E2,5.244147E1,2.137725E1,9.333486E1,1.0723554E1,3.685782E1,1.8531399E1,3.6972706E1,5.2014507E1,7.5215515E1,5.256201E2,1.4879631E3,1.07686386E2,2.5282188E1,3.843431E1,1.4007157E1,1.179887E1,9.578381E0,2.5107119E1,6.8227745E1,4.925106E0,5.798447E0,2.3502531E1,1.3470176E1,5.2357554E0,4.677875E1,2.9241798E1,4.5973717E1,1.14100334E2,4.115198E2,1.6932607E2,1.3186371E3,7.65099E1,3.1176483E1,3.7833812E0,2.1498806E1,3.1103396E0,3.5323975E1,1.0941592E1,3.0655644E0,4.0586104E0,5.5197706E0,1.026421E1,1.4842909E1,5.295021E0,6.2932724E1,1.9191227E1,4.3113046E0,7.368024E0,6.102152E0,1.995681E1,9.284988E0,1.2355324E1,3.361839E1,1.7608965E1,9.649136E1,1.5235094E2,2.5916888E2,1.4676668E2,2.2559385E1,5.536834E2,7.649537E2,4.714379E1,2.936611E1,4.837449E0,1.6661358E1,3.215611E1,3.1678655E0,4.99326E0,5.2709503E0,8.625434E0,6.2174754E0,2.6785856E1,3.614687E1],"tree_param":{"num_deleted":"0","num_feature":"10","num_nodes":"103","size_leaf_vector":"1"}},{"base_weights":[5.4144347E-3,-2.0358309E-1,8.708583E-1,-1.0361727E0,-5.4263398E-2,5.9481674E-1,2.162571E-1,-1.0620294E0,1.3368964E-1,5.458897E-1,-1.21425994E-1,7.835013E-1,3.1108207E-1,-4.775465E-1,-2.1622573E-1,9.176595E-1,3.9987808E-1,-1.906943E-1,1.977241E-1,-8.5196644E-2,8.100264E-1,3.501602E-1,-1.5646794E-1,-1.9845505E-1,1.7334224E-1,2.1132424E-1,7.582159E-1,1.1004321E-2,6.6952395E-1,-2.0739673E-1,2.1366636E-1,6.107233E-1,1.01385325E-1,6.872202E-1,9.0669405E-1,2.516571E-1,7.424943E-1,-1.1464315E-1,1.9398357E-1,-5.541265E-1,2.7104568E-1,5.6943536E-1,9.542828E-1,-3.144664E-1,-3.606653E-2,1.046514E-1,6.9318765E-1,1.7945115E-1,-3.241516E-1,7.3897386E-1,-5.78029E-3,2.0382404E-1,7.7822006E-1,3.7667722E-1,-7.900997E-1,4.5764003E-2,8.7484366E-1,-2.030005E-1,1.721854E-1,-2.4815872E-1,-1.3252409E-1,8.517274E-1,-1.8747002E-1,4.602858E-1,1.8634729E-1,1.1084718E0,4.7180855E-1,-4.4870085E-1,-1.3607411E-1,-1.9833247E-1,1.4340664E-1,-1.2162159E-1,1.998417E-1,9.2653656E-1,4.6330637E-1,1.3697621E-1,3.3641258E-1,-6.6350156E-1,5.5956535E-2,8.713634E-1,5.6037724E-1,2.2524963E-1,8.6647433E-1,3.1952804E-1,1.8777506E-1,-3.3480293E-1,-3.0551573E-2,2.0840888E-1,8.7660864E-2,9.565287E-2,-7.877429E-2,1.2153306E-1,2.6994225E-1,8.8379346E-2,-1.8496923E-1,1.7159426E-1,5.9857886E-2,1.2499668E-1,2.553536E-1,1.3941996E-1,2.7074028E-2,-2.9547945E-2,-1.2197568E-1,1.7156588E-1,-5.6012023E-2,-5.2826297E-3,-1.3297248E-1,-6.0967356E-2,8.011851E-2,2.9069362E-2,2.0769393E-1,1.163178E-1,-3.2577164E-2,1.3477218E-2,2.1273099E-1,-1.5777807E-1,-3.7744325E-3,-6.0505915E-2,1.233985E-1,1.4025006E-1,1.9963962E-1,4.3455675E-2,1.3188486E-1,1.3899024E-1,-7.157749E-2,2.1444571E-1,1.3919522E-1,-4.180825E-2,8.233672E-2],"categories":[],"categories_nodes":[],"categories_segments":[],"categories_sizes":[],"default_left":[0,0,0,0,0,0,0,0,0,0,0,0,0,0,0,0,0,0,0,0,0,0,0,0,0,0,0,0,0,0,0,0,0,0,0,0,0,0,0,0,0,0,0,0,0,0,0,0,0,0,0,0,0,0,0,0,0,0,0,0,0,0,0,0,0,0,0,0,0,0,0,0,0,0,0,0,0,0,0,0,0,0,0,0,0,0,0,0,0,0,0,0,0,0,0,0,0,0,0,0,0,0,0,0,0,0,0,0,0,0,0,0,0,0,0,0,0,0,0,0,0,0,0,0,0,0,0,0,0],"id":9,"left_children":[1,3,5,7,9,11,-1,13,-1,15,17,19,21,23,-1,25,27,29,31,-1,33,35,-1,-1,-1,-1,37,39,41,43,-1,45,47,49,51,53,55,57,-1,59,61,63,65,67,69,71,73,75,77,79,-1,-1,81,83,85,-1,87,-1,-1,-1,89,91,93,95,-1,97,99,101,103,105,107,-1,-1,109,111,113,-1,115,117,119,121,123,125,127,-1,-1,-1,-1,-1,-1,-1,-1,-1,-1,-1,-1,-1,-1,-1,-1,-1,-1,-1,-1,-1,-1,-1,-1,-1,-1,-1,-1,-1,-1,-1,-1,-1,-1,-1,-1,-1,-1,-1,-1,-1,-1,-1,-1,-1],"loss_changes":[5.9889856E2,3.3151813E2,3.6768494E1,1.8583832E1,9.126413E1,1.4790375E1,0E0,3.9473267E0,0E0,1.2003891E1,4.5039497E1,5.734848E0,5.1372786E0,1.0854076E1,0E0,6.0564804E-1,1.733653E1,3.5405308E1,1.44015465E1,0E0,1.3326035E0,4.0867023E0,0E0,0E0,0E0,0E0,6.229187E0,1.0252762E1,2.2399712E0,3.029438E1,0E0,2.78858E0,9.88982E0,2.8637085E0,4.931183E-1,1.2006565E1,1.273673E0,7.335919E0,0E0,6.2023892E0,1.2873838E1,2.5267181E0,1.2563801E0,2.4281937E1,1.8564613E1,7.483546E0,2.7235126E0,1.5771559E1,6.000834E0,1.2037086E0,0E0,0E0,2.0394325E0,2.3007479E0,5.3529897E0,0E0,7.7560234E-1,0E0,0E0,0E0,2.5422113E0,1.7625027E0,1.317212E1,3.5471535E0,0E0,6.16642E-1,4.7666788E-1,2.802713E1,6.291057E1,2.6826427E1,3.502972E1,0E0,0E0,2.3120003E0,2.4357982E0,1.5722583E1,0E0,1.9657822E0,4.758118E0,1.4784622E-1,9.871931E-1,2.3449893E0,6.266651E-1,3.7390285E0,0E0,0E0,0E0,0E0,0E0,0E0,0E0,0E0,0E0,0E0,0E0,0E0,0E0,0E0,0E0,0E0,0E0,0E0,0E0,0E0,0E0,0E0,0E0,0E0,0E0,0E0,0E0,0E0,0E0,0E0,0E0,0E0,0E0,0E0,0E0,0E0,0E0,0E0,0E0,0E0,0E0,0E0,0E0,0E0,0E0],"parents":[2147483647,0,0,1,1,2,2,3,3,4,4,5,5,7,7,9,9,10,10,11,11,12,12,13,13,15,15,16,16,17,17,18,18,20,20,21,21,26,26,27,27,28,28,29,29,31,31,32,32,33,33,34,34,35,35,36,36,37,37,39,39,40,40,41,41,42,42,43,43,44,44,45,45,46,46,47,47,48,48,49,49,52,52,53,53,54,54,56,56,60,60,61,61,62,62,63,63,65,65,66,66,67,67,68,68,69,69,70,70,73,73,74,74,75,75,77,77,78,78,79,79,80,80,81,81,82,82,83,83],"right_children":[2,4,6,8,10,12,-1,14,-1,16,18,20,22,24,-1,26,28,30,32,-1,34,36,-1,-1,-1,-1,38,40,42,44,-1,46,48,50,52,54,56,58,-1,60,62,64,66,68,70,72,74,76,78,80,-1,-1,82,84,86,-1,88,-1,-1,-1,90,92,94,96,-1,98,100,102,104,106,108,-1,-1,110,112,114,-1,116,118,120,122,124,126,128,-1,-1,-1,-1,-1,-1,-1,-1,-1,-1,-1,-1,-1,-1,-1,-1,-1,-1,-1,-1,-1,-1,-1,-1,-1,-1,-1,-1,-1,-1,-1,-1,-1,-1,-1,-1,-1,-1,-1,-1,-1,-1,-1,-1,-1],"split_conditions":[1E0,2E-1,1E0,1E1,9.5E0,2.2666666E1,2.162571E-1,2E0,1.3368964E-1,7E0,7.01E1,5E-1,1.78E2,1E0,-2.1622573E-1,1E0,4.6666665E0,1E0,1.71E2,-8.5196644E-2,1.6E1,9.8166664E1,-1.5646794E-1,-1.9845505E-1,1.7334224E-1,2.1132424E-1,1E0,7E0,2.2E1,1E0,2.1366636E-1,3E0,1.57E2,1.4E1,7.3E1,7.4666664E1,1.93E2,2.5E-1,1.9398357E-1,2.5E-1,1.2E1,2.9E1,1.2E1,1.04E2,1.2E1,1.925E2,1.1E2,3.29E2,9E0,3.2E0,-5.78029E-3,2.0382404E-1,2.9E1,6.2416668E1,8.3666664E1,4.5764003E-2,8.3E1,-2.030005E-1,1.721854E-1,-2.4815872E-1,2E0,3.5E1,4.7E1,7.375E0,1.8634729E-1,1E1,3.5E1,1.01E2,1.79E2,1.5E1,1.2E1,-1.2162159E-1,1.998417E-1,8.042857E1,3.43E2,2.46E2,3.3641258E-1,4.67E2,2.83E2,3E0,2.7E1,2.3E1,6.6E1,4.2E1,1.8777506E-1,-3.3480293E-1,-3.0551573E-2,2.0840888E-1,8.7660864E-2,9.565287E-2,-7.877429E-2,1.2153306E-1,2.6994225E-1,8.8379346E-2,-1.8496923E-1,1.7159426E-1,5.9857886E-2,1.2499668E-1,2.553536E-1,1.3941996E-1,2.7074028E-2,-2.9547945E-2,-1.2197568E-1,1.7156588E-1,-5.6012023E-2,-5.2826297E-3,-1.3297248E-1,-6.0967356E-2,8.011851E-2,2.9069362E-2,2.0769393E-1,1.163178E-1,-3.2577164E-2,1.3477218E-2,2.1273099E-1,-1.5777807E-1,-3.7744325E-3,-6.0505915E-2,1.233985E-1,1.4025006E-1,1.9963962E-1,4.3455675E-2,1.3188486E-1,1.3899024E-1,-7.157749E-2,2.1444571E-1,1.3919522E-1,-4.180825E-2,8.233672E-2],"split_indices":[0,3,2,7,3,3,0,8,0,5,9,9,3,5,0,5,9,1,5,0,8,9,0,0,0,0,8,8,8,4,0,8,3,8,5,9,5,9,0,9,7,9,6,8,7,9,5,8,6,3,0,0,8,9,9,0,3,0,0,0,3,5,5,9,0,7,8,5,5,6,6,0,0,9,9,9,0,8,8,8,5,8,8,8,0,0,0,0,0,0,0,0,0,0,0,0,0,0,0,0,0,0,0,0,0,0,0,0,0,0,0,0,0,0,0,0,0,0,0,0,0,0,0,0,0,0,0,0,0],"split_type":[0,0,0,0,0,0,0,0,0,0,0,0,0,0,0,0,0,0,0,0,0,0,0,0,0,0,0,0,0,0,0,0,0,0,0,0,0,0,0,0,0,0,0,0,0,0,0,0,0,0,0,0,0,0,0,0,0,0,0,0,0,0,0,0,0,0,0,0,0,0,0,0,0,0,0,0,0,0,0,0,0,0,0,0,0,0,0,0,0,0,0,0,0,0,0,0,0,0,0,0,0,0,0,0,0,0,0,0,0,0,0,0,0,0,0,0,0,0,0,0,0,0,0,0,0,0,0,0,0],"sum_hessian":[3.3091267E3,2.66606E3,6.430666E2,4.0452655E2,2.2615334E3,2.7982047E2,3.6324615E2,3.988535E2,5.673063E0,2.2689671E2,2.0346367E3,1.6700206E2,1.128184E2,1.3443786E1,3.854097E2,6.249336E1,1.6440337E2,1.6721221E3,3.625147E2,3.2607203E0,1.6374133E2,1.0958178E2,3.2366207E0,9.910721E0,3.5330653E0,3.0384819E1,3.210854E1,6.774488E1,9.665848E1,1.6510542E3,2.1067858E1,6.755797E1,2.9495673E2,7.569183E1,8.804951E1,8.8902504E1,2.0679272E1,6.3569484E0,2.575159E1,2.099245E1,4.675243E1,7.3739746E1,2.2918734E1,1.01556195E3,6.3549225E2,9.7839985E0,5.7773968E1,2.4972276E2,4.5233974E1,7.0560555E1,5.131276E0,4.326034E1,4.4789165E1,7.994662E1,8.955887E0,4.7955794E0,1.5883692E1,3.2848873E0,3.072061E0,7.246682E0,1.3745768E1,2.0249773E1,2.6502657E1,5.841243E1,1.5327315E1,1.6384962E1,6.5337725E0,5.786393E2,4.3692267E2,3.3369006E2,3.0180215E2,5.6235313E0,4.160467E0,2.7166836E1,3.0607134E1,2.4391896E2,5.803797E0,2.350437E1,2.1729605E1,3.8294662E1,3.2265896E1,6.6534204E0,3.8135742E1,7.3993324E1,5.9532933E0,3.070677E0,5.8852096E0,1.0481914E1,5.401778E0,3.8703868E0,9.8753805E0,1.50795355E1,5.170237E0,1.4514732E1,1.1987926E1,1.558528E1,4.282715E1,5.447821E0,1.093714E1,3.2712374E0,3.262535E0,2.0247733E2,3.7616196E2,5.4659885E1,3.822628E2,2.446073E2,8.908277E1,1.09963684E2,1.9183849E2,3.6928267E0,2.3474009E1,2.5804167E1,4.802967E0,2.2787883E2,1.6040136E1,1.9489601E1,4.014769E0,1.3539204E1,8.190402E0,1.9145367E1,1.9149294E1,7.9434543E0,2.432244E1,3.578936E0,3.0744846E0,1.48845415E1,2.3251202E1,1.079707E1,6.3196255E1],"tree_param":{"num_deleted":"0","num_feature":"10","num_nodes":"129","size_leaf_vector":"1"}},{"base_weights":[4.614904E-3,-1.7300946E-1,8.194973E-1,-1.0175804E0,-4.0194664E-2,5.289659E-1,2.1285804E-1,-1.0440458E0,1.2224986E-1,5.228495E-1,-9.5249735E-2,6.6155636E-1,1.5618233E-1,-4.637514E-1,-2.1286745E-1,9.0090275E-1,3.683505E-1,-2.8047934E-1,9.818532E-3,-1.2249459E-1,6.90518E-1,8.570991E-2,2.0112494E-1,-1.9357121E-1,1.6705199E-1,2.0670052E-1,7.5485176E-1,-1.4230634E-1,5.874484E-1,-7.8625065E-1,-1.7392075E-1,2.2074081E-1,-1.8188313E-1,7.149914E-1,3.7259948E-2,-5.4806713E-2,4.8749095E-1,-8.048304E-3,1.8923277E-1,-2.3299646E-1,2.8229755E-1,4.5903927E-1,9.4243985E-1,3.6047127E-2,-1.1171668E0,4.3243766E-1,-3.8336167E-1,4.5780636E-2,4.0686744E-1,-3.1732926E-1,1.8172374E-1,6.7896616E-1,2.071296E-1,-1.0269409E-1,1.0830744E-1,1.4980298E-1,-4.5022342E-1,8.714187E-1,-3.53363E-2,5.8718115E-1,-2.0184828E-1,7.5638425E-1,-2.9841828E-1,7.880171E-2,2.1249397E-1,5.362054E-1,-1.6258901E-1,-1.1630954E0,2.5695069E-2,1.2024854E-1,8.0868316E-1,-1.0090456E0,-1.4851786E-1,-4.5390404E-3,9.458375E-1,8.7272996E-1,3.0546978E-1,-4.7905308E-1,2.0603414E-1,1.987639E-2,4.9498022E-1,7.9104453E-1,5.799925E-1,2.8100693E-1,-8.634104E-2,2.2182254E-1,-1.0151405E0,4.9970966E-2,2.2025824E-1,-2.104379E-2,1.7418048E-1,7.702779E-2,-1.3411216E-1,2.0157421E-2,1.6892606E-1,-2.693977E-1,6.576443E-2,1.8246785E-1,-2.021648E-2,-2.925447E-1,1.7232109E-2,-2.3814844E-1,-1.5028365E-1,1.5441446E-1,-7.4613735E-2,3.1666765E-1,9.382771E-2,-4.3758936E-2,-2.3407602E-1,8.4293686E-2,-9.2143886E-2,-3.8131177E-2,5.888271E-2,1.7124189E-2,2.2869554E-1,1.1131044E-1,2.3649907E-1,3.503261E-2,1.2225693E-1,-1.10730186E-1,1.3255327E-2,1.9431114E-1,-7.745693E-3,6.1486334E-2,-3.531658E-2,1.1124112E-1,-1.0673393E-2,1.3572875E-1,1.997015E-1,-5.7341706E-2,1.2771136E-1,-2.0340842E-3,1.0758485E-1,1.5069398E-1,-4.8580904E-2,-2.6817307E-1,-7.947677E-2],"categories":[],"categories_nodes":[],"categories_segments":[],"categories_sizes":[],"default_left":[0,0,0,0,0,0,0,0,0,0,0,0,0,0,0,0,0,0,0,0,0,0,0,0,0,0,0,0,0,0,0,0,0,0,0,0,0,0,0,0,0,0,0,0,0,0,0,0,0,0,0,0,0,0,0,0,0,0,0,0,0,0,0,0,0,0,0,0,0,0,0,0,0,0,0,0,0,0,0,0,0,0,0,0,0,0,0,0,0,0,0,0,0,0,0,0,0,0,0,0,0,0,0,0,0,0,0,0,0,0,0,0,0,0,0,0,0,0,0,0,0,0,0,0,0,0,0,0,0,0,0,0,0,0,0,0,0],"id":10,"left_children":[1,3,5,7,9,11,-1,13,-1,15,17,19,21,23,-1,25,27,29,31,-1,33,35,-1,-1,-1,-1,37,39,41,43,45,47,49,51,53,55,57,-1,-1,-1,59,61,63,65,67,69,71,73,75,77,79,81,-1,-1,-1,83,85,87,-1,89,91,93,95,-1,-1,97,99,101,-1,103,105,107,109,111,113,115,117,119,121,123,125,127,129,131,-1,133,135,-1,-1,-1,-1,-1,-1,-1,-1,-1,-1,-1,-1,-1,-1,-1,-1,-1,-1,-1,-1,-1,-1,-1,-1,-1,-1,-1,-1,-1,-1,-1,-1,-1,-1,-1,-1,-1,-1,-1,-1,-1,-1,-1,-1,-1,-1,-1,-1,-1,-1],"loss_changes":[4.453117E2,2.8330334E2,3.8595642E1,1.5433197E1,6.77436E1,1.243969E1,0E0,3.4874573E0,0E0,1.1038422E1,3.873386E1,7.3183594E0,3.9776936E0,9.448951E0,0E0,3.001747E-1,1.573432E1,3.868444E1,5.1423588E1,0E0,2.9021683E0,3.627526E0,0E0,0E0,0E0,0E0,4.640066E0,1.8915298E1,4.038311E0,3.407254E1,7.588777E1,1.9699833E1,3.287127E1,1.3359909E0,2.4082594E0,3.9632752E0,4.393818E0,0E0,0E0,0E0,4.701805E0,1.6887148E1,1.2339478E0,3.7489023E0,5.253212E0,1.7938316E1,6.5047554E1,1.4191435E1,1.3586628E1,4.1217804E1,9.190531E0,1.333786E0,0E0,0E0,0E0,2.5996237E0,6.5538445E0,1.2543907E0,0E0,3.884707E0,3.763982E0,3.0045948E0,1.46301365E1,0E0,0E0,2.659339E0,8.905744E0,8.5624695E-2,0E0,2.764971E1,1.7525997E1,1.5160332E1,5.781262E1,1.6617792E1,2.7226677E0,4.4233665E0,9.5519085E0,1.5146576E1,2.165669E1,6.8724947E0,2.1036854E0,1.0254593E0,4.72917E0,2.0334327E0,0E0,2.2667382E0,1.3256245E0,0E0,0E0,0E0,0E0,0E0,0E0,0E0,0E0,0E0,0E0,0E0,0E0,0E0,0E0,0E0,0E0,0E0,0E0,0E0,0E0,0E0,0E0,0E0,0E0,0E0,0E0,0E0,0E0,0E0,0E0,0E0,0E0,0E0,0E0,0E0,0E0,0E0,0E0,0E0,0E0,0E0,0E0,0E0,0E0,0E0,0E0,0E0,0E0,0E0,0E0],"parents":[2147483647,0,0,1,1,2,2,3,3,4,4,5,5,7,7,9,9,10,10,11,11,12,12,13,13,15,15,16,16,17,17,18,18,20,20,21,21,26,26,27,27,28,28,29,29,30,30,31,31,32,32,33,33,34,34,35,35,36,36,40,40,41,41,42,42,43,43,44,44,45,45,46,46,47,47,48,48,49,49,50,50,51,51,55,55,56,56,57,57,59,59,60,60,61,61,62,62,65,65,66,66,67,67,69,69,70,70,71,71,72,72,73,73,74,74,75,75,76,76,77,77,78,78,79,79,80,80,81,81,82,82,83,83,85,85,86,86],"right_children":[2,4,6,8,10,12,-1,14,-1,16,18,20,22,24,-1,26,28,30,32,-1,34,36,-1,-1,-1,-1,38,40,42,44,46,48,50,52,54,56,58,-1,-1,-1,60,62,64,66,68,70,72,74,76,78,80,82,-1,-1,-1,84,86,88,-1,90,92,94,96,-1,-1,98,100,102,-1,104,106,108,110,112,114,116,118,120,122,124,126,128,130,132,-1,134,136,-1,-1,-1,-1,-1,-1,-1,-1,-1,-1,-1,-1,-1,-1,-1,-1,-1,-1,-1,-1,-1,-1,-1,-1,-1,-1,-1,-1,-1,-1,-1,-1,-1,-1,-1,-1,-1,-1,-1,-1,-1,-1,-1,-1,-1,-1,-1,-1,-1,-1],"split_conditions":[1E0,2E-1,1E0,1E1,3.2E1,3.6E1,2.1285804E-1,2E0,1.2224986E-1,7E0,9.818182E0,5E-1,1E0,1E0,-2.1286745E-1,1E0,7E0,3.2E1,4.45E1,-1.2249459E-1,7.22E2,9.8166664E1,2.0112494E-1,-1.9357121E-1,1.6705199E-1,2.0670052E-1,1E0,2.5E-1,2.2E1,1.075E1,9.3E1,4.7E1,9.35E1,1E0,8.69E2,6.15E1,1.5E1,-8.048304E-3,1.8923277E-1,-2.3299646E-1,3.5384614E0,2.2E1,1.3583333E1,2E0,4.56E2,5.5E1,9.4E1,7.37E2,2E1,2.9E2,1E0,5.6E1,2.071296E-1,-1.0269409E-1,1.0830744E-1,6.7818184E1,2.316E1,3.21E2,-3.53363E-2,3.4E0,2E0,4.6666665E0,1.125E0,7.880171E-2,2.1249397E-1,1.16E2,5E0,5.8333335E0,2.5695069E-2,4.9E1,6.8E1,1.575E1,1.96E2,4.3E1,2.5E1,2.05E1,4.125E1,1.129E3,6.8E2,8.45E1,2.03E2,1.8E1,1.8E0,1.2E1,-8.634104E-2,1E0,1.2E1,4.9970966E-2,2.2025824E-1,-2.104379E-2,1.7418048E-1,7.702779E-2,-1.3411216E-1,2.0157421E-2,1.6892606E-1,-2.693977E-1,6.576443E-2,1.8246785E-1,-2.021648E-2,-2.925447E-1,1.7232109E-2,-2.3814844E-1,-1.5028365E-1,1.5441446E-1,-7.4613735E-2,3.1666765E-1,9.382771E-2,-4.3758936E-2,-2.3407602E-1,8.4293686E-2,-9.2143886E-2,-3.8131177E-2,5.888271E-2,1.7124189E-2,2.2869554E-1,1.1131044E-1,2.3649907E-1,3.503261E-2,1.2225693E-1,-1.10730186E-1,1.3255327E-2,1.9431114E-1,-7.745693E-3,6.1486334E-2,-3.531658E-2,1.1124112E-1,-1.0673393E-2,1.3572875E-1,1.997015E-1,-5.7341706E-2,1.2771136E-1,-2.0340842E-3,1.0758485E-1,1.5069398E-1,-4.8580904E-2,-2.6817307E-1,-7.947677E-2],"split_indices":[0,3,2,7,5,3,0,8,0,5,9,9,1,5,0,5,8,8,3,0,5,9,0,0,0,0,8,9,8,3,5,8,9,1,5,3,6,0,0,0,3,5,3,8,5,8,8,5,3,8,4,5,0,0,0,9,9,5,0,9,8,3,9,0,0,5,8,9,0,5,5,3,5,9,3,9,9,5,5,3,3,8,9,6,0,4,6,0,0,0,0,0,0,0,0,0,0,0,0,0,0,0,0,0,0,0,0,0,0,0,0,0,0,0,0,0,0,0,0,0,0,0,0,0,0,0,0,0,0,0,0,0,0,0,0,0,0],"split_type":[0,0,0,0,0,0,0,0,0,0,0,0,0,0,0,0,0,0,0,0,0,0,0,0,0,0,0,0,0,0,0,0,0,0,0,0,0,0,0,0,0,0,0,0,0,0,0,0,0,0,0,0,0,0,0,0,0,0,0,0,0,0,0,0,0,0,0,0,0,0,0,0,0,0,0,0,0,0,0,0,0,0,0,0,0,0,0,0,0,0,0,0,0,0,0,0,0,0,0,0,0,0,0,0,0,0,0,0,0,0,0,0,0,0,0,0,0,0,0,0,0,0,0,0,0,0,0,0,0,0,0,0,0,0,0,0,0],"sum_hessian":[3.0745896E3,2.5249912E3,5.4959845E2,3.4221027E2,2.182781E3,2.5276556E2,2.968329E2,3.3709216E2,5.118099E0,1.9366692E2,1.989114E3,1.858783E2,6.688726E1,1.2194933E1,3.2489722E2,5.478324E1,1.3888367E2,7.1932104E2,1.2697931E3,3.6837003E0,1.821946E2,6.2779755E1,4.107506E0,8.969201E0,3.225731E0,2.5529062E1,2.9254177E1,4.1802967E1,9.70807E1,1.2406734E2,5.9525366E2,6.0451544E2,6.652776E2,1.7552432E2,6.670279E0,4.71525E1,1.5627256E1,5.826964E0,2.3427214E1,1.1752617E1,3.005035E1,7.2976425E1,2.410428E1,3.5856964E1,8.821037E1,1.5254669E2,4.42707E2,3.1224716E2,2.9226828E2,4.8480978E2,1.8046782E2,1.6059874E2,1.4925588E1,3.179576E0,3.4907029E0,3.148278E1,1.5669719E1,9.705129E0,5.9221277E0,1.8308212E1,1.174214E1,5.2405655E1,2.057077E1,5.097193E0,1.9007088E1,9.709465E0,2.6147501E1,8.51375E1,3.0728717E0,8.409151E1,6.845519E1,1.1991803E2,3.2278897E2,2.9665686E2,1.5590302E1,5.0883163E1,2.4138512E2,3.7042877E2,1.1438102E2,1.1969141E2,6.0776413E1,7.2034256E1,8.8564476E1,2.6108711E1,5.3740687E0,7.4336796E0,8.236039E0,3.1836429E0,6.521486E0,5.504368E0,1.28038435E1,5.2924724E0,6.449667E0,6.471288E0,4.5934364E1,7.2699566E0,1.3300814E1,5.8343654E0,3.8750997E0,3.4154944E0,2.2732006E1,7.800645E1,7.1310506E0,3.5982494E1,4.810901E1,1.9744934E1,4.8710255E1,2.0730703E1,9.9187325E1,1.1410943E2,2.0867953E2,1.830555E2,1.1360135E2,3.1805167E0,1.2409786E1,2.6564966E1,2.4318197E1,1.7036565E2,7.101947E1,3.2584045E2,4.4588303E1,2.6991814E1,8.7389206E1,4.8352917E1,7.1338486E1,5.4659153E1,6.1172633E0,4.949152E1,2.2542734E1,5.3590794E0,8.32054E1,1.268855E1,1.3420161E1,3.1774092E0,4.2562704E0,4.6262274E0,3.609812E0],"tree_param":{"num_deleted":"0","num_feature":"10","num_nodes":"137","size_leaf_vector":"1"}},{"base_weights":[-1.8433939E-3,-1.11326344E-1,1.0760168E0,-9.756817E-1,-5.5658864E-3,2.766405E-1,2.1013144E-1,1.1989161E-1,-2.1003783E-1,4.4692305E-1,-7.6940954E-2,-1.8600589E-1,8.047847E-1,8.242479E-1,3.5906926E-1,-9.5258646E-2,2.1443084E-1,6.0811855E-2,1.9287732E-1,2.0380104E-1,6.6407424E-1,-1.2711471E-1,4.332747E-1,-2.0356264E-2,-2.9245025E-1,-5.552494E-2,1.873497E-1,-2.2142811E-1,1.8543702E-1,3.896548E-1,2.1574274E-1,-1.1919802E-1,1.8313062E-1,-6.988624E-1,-1.6484724E-1,-2.8848925E-1,6.923319E-1,8.9126176E-1,-6.703697E-1,2.6562622E-1,5.7980204E-1,-4.597927E-1,-2.922122E-2,1.3541754E-1,9.199395E-1,-2.321111E-1,-2.245246E-1,6.4386255E-1,-3.2606983E-1,6.866865E-2,1.7028649E-1,8.6146675E-2,1.9982292E-1,-2.383369E-1,-5.1847022E-2,7.387865E-2,-6.772667E-2,6.811532E-2,1.6031437E-1,5.474496E-2,-1.312224E-1,1.0039524E-1,-2.4941403E-2,9.65067E-2,5.4718023E-3,1.0716837E-1,2.9529428E-1,-6.250642E-2,1.9151086E-1,7.60936E-2,2.7293333E-1,-1.671776E-1,-1.9088702E-2],"categories":[],"categories_nodes":[],"categories_segments":[],"categories_sizes":[],"default_left":[0,0,0,0,0,0,0,0,0,0,0,0,0,0,0,0,0,0,0,0,0,0,0,0,0,0,0,0,0,0,0,0,0,0,0,0,0,0,0,0,0,0,0,0,0,0,0,0,0,0,0,0,0,0,0,0,0,0,0,0,0,0,0,0,0,0,0,0,0,0,0,0,0],"id":11,"left_children":[1,3,5,7,9,-1,-1,11,-1,13,15,-1,17,19,21,23,-1,-1,-1,-1,25,27,29,31,33,35,-1,-1,37,39,-1,41,43,45,47,-1,49,51,53,55,57,59,61,63,65,-1,67,69,71,-1,-1,-1,-1,-1,-1,-1,-1,-1,-1,-1,-1,-1,-1,-1,-1,-1,-1,-1,-1,-1,-1,-1,-1],"loss_changes":[3.4180493E2,2.4035815E2,6.272888E-1,2.3524261E1,7.572861E1,0E0,0E0,1.4519121E1,0E0,1.02944145E1,4.2731354E1,0E0,6.7583704E-1,1.1814079E0,9.468063E0,2.9451574E1,0E0,0E0,0E0,0E0,7.028471E0,1.1024825E1,5.9590263E0,2.9114347E1,2.8352802E1,1.2111882E1,0E0,0E0,1.7292015E1,4.888405E0,0E0,2.9840403E1,1.6514147E1,2.8398022E1,5.4851067E1,0E0,1.3168597E-1,3.4326363E-1,2.4907422E0,8.35466E0,4.1601715E0,2.9484852E1,3.9202568E1,1.670367E1,5.325014E0,0E0,7.1432095E0,1.2770033E1,4.1082615E1,0E0,0E0,0E0,0E0,0E0,0E0,0E0,0E0,0E0,0E0,0E0,0E0,0E0,0E0,0E0,0E0,0E0,0E0,0E0,0E0,0E0,0E0,0E0,0E0],"parents":[2147483647,0,0,1,1,2,2,3,3,4,4,7,7,9,9,10,10,12,12,13,13,14,14,15,15,20,20,21,21,22,22,23,23,24,24,25,25,28,28,29,29,31,31,32,32,33,33,34,34,36,36,37,37,38,38,39,39,40,40,41,41,42,42,43,43,44,44,46,46,47,47,48,48],"right_children":[2,4,6,8,10,-1,-1,12,-1,14,16,-1,18,20,22,24,-1,-1,-1,-1,26,28,30,32,34,36,-1,-1,38,40,-1,42,44,46,48,-1,50,52,54,56,58,60,62,64,66,-1,68,70,72,-1,-1,-1,-1,-1,-1,-1,-1,-1,-1,-1,-1,-1,-1,-1,-1,-1,-1,-1,-1,-1,-1,-1,-1],"split_conditions":[1E0,2E-1,1E0,2E0,1.1227273E1,2.766405E-1,2.1013144E-1,1E0,-2.1003783E-1,7E0,1E0,-1.8600589E-1,1E0,2E0,1E0,8.45E1,2.1443084E-1,6.0811855E-2,1.9287732E-1,2.0380104E-1,2E0,7E0,1E0,3.9083332E1,8.5E1,3.3333334E-1,1.873497E-1,-2.2142811E-1,1.5E1,1.8E1,2.1574274E-1,2.9E1,1.86E2,5.8333332E1,1.79E2,-2.8848925E-1,3.8E0,6.2E0,3.3333334E-1,9E0,6.5555553E0,2.9E1,7.3E1,2.87E1,1.2E1,-2.321111E-1,5.57E2,1.42E2,1.82E2,6.866865E-2,1.7028649E-1,8.6146675E-2,1.9982292E-1,-2.383369E-1,-5.1847022E-2,7.387865E-2,-6.772667E-2,6.811532E-2,1.6031437E-1,5.474496E-2,-1.312224E-1,1.0039524E-1,-2.4941403E-2,9.65067E-2,5.4718023E-3,1.0716837E-1,2.9529428E-1,-6.250642E-2,1.9151086E-1,7.60936E-2,2.7293333E-1,-1.671776E-1,-1.9088702E-2],"split_indices":[2,3,0,8,3,0,0,5,0,5,1,0,8,5,9,3,0,0,0,0,8,8,1,9,8,9,0,0,5,8,0,8,8,9,5,0,9,3,9,3,9,5,5,3,6,0,9,8,8,0,0,0,0,0,0,0,0,0,0,0,0,0,0,0,0,0,0,0,0,0,0,0,0],"split_type":[0,0,0,0,0,0,0,0,0,0,0,0,0,0,0,0,0,0,0,0,0,0,0,0,0,0,0,0,0,0,0,0,0,0,0,0,0,0,0,0,0,0,0,0,0,0,0,0,0,0,0,0,0,0,0,0,0,0,0,0,0,0,0,0,0,0,0,0,0,0,0,0,0],"sum_hessian":[2.8944573E3,2.6283782E3,2.660791E2,2.8564484E2,2.3427334E3,1.6207794E1,2.4987132E2,1.815027E1,2.6749457E2,3.1847424E2,2.0242592E3,7.0243025E0,1.1125968E1,5.8564114E1,2.5991016E2,1.9933995E3,3.0859625E1,3.391328E0,7.73464E0,2.4009165E1,3.455495E1,3.432226E1,2.2558788E2,1.4454535E3,5.47946E2,9.714454E0,2.4840496E1,7.684563E0,2.6637701E1,2.1280954E2,1.2778344E1,9.7316327E2,4.7229025E2,1.2986208E2,4.1808392E2,3.0778053E0,6.6366487E0,1.4575313E1,1.2062387E1,1.3024847E2,8.256106E1,2.0250365E2,7.706596E2,4.4467828E2,2.7611977E1,6.507506E1,6.478702E1,6.8996506E1,3.4908743E2,3.067056E0,3.5695925E0,3.713308E0,1.0862004E1,4.481438E0,7.5809493E0,1.11491234E2,1.875725E1,4.0937286E1,4.1623768E1,4.2671963E1,1.5983168E2,1.1677439E2,6.538852E2,1.0474401E2,3.3993427E2,1.7498196E1,1.0113781E1,6.0982395E1,3.8046205E0,5.165038E1,1.7346125E1,1.0791287E2,2.4117456E2],"tree_param":{"num_deleted":"0","num_feature":"10","num_nodes":"73","size_leaf_vector":"1"}},{"base_weights":[1.898956E-2,-7.319309E-2,2.1209724E-1,-9.6981454E-1,1.9659732E-2,1.641876E-2,-2.07604E-1,3.0227977E-1,-6.0160484E-2,-1.7968534E-1,6.177419E-1,1.8333364E-1,6.9263464E-1,-7.422875E-2,2.0788483E-1,-1.4433001E-2,1.8542963E-1,5.918907E-1,2.296212E-2,5.2448577E-1,1.1078668E0,-1.0653577E-1,3.8481575E-1,3.348973E-1,7.5965923E-1,-1.0365438E0,1.2866274E-1,6.1835635E-1,-1.3026822E-1,2.6835763E-1,8.8620394E-1,-1.8135671E-1,1.1559593E-1,1.33662E-1,6.239904E-1,7.4452114E-1,-1.2401674E0,1.8283057E-1,6.1490417E-1,-1.595268E-1,-1.3626256E0,-2.395691E-4,6.17145E-1,5.3268343E-1,2.8251758E-1,-5.083958E-1,1.0389679E-1,7.414123E-2,9.879223E-1,8.904254E-2,-2.8581214E-1,1.0003341E0,-2.7247674E-3,-7.7068865E-2,4.9885342E-1,7.1305054E-1,-1.336206E-1,1.9966644E-1,7.918993E-2,-3.306969E-1,-1.4399435E-1,2.7932048E-2,1.8485345E-1,-2.9249787E-1,1.8563494E-1,-1.2588114E-1,-2.9668206E-1,1.1877264E-2,-1.7796168E-1,1.8943237E-1,9.3109936E-2,1.4452617E-1,5.259796E-2,-2.9303147E-2,-1.5351336E-1,1.2351096E-1,2.2302842E-1,-7.51106E-2,8.944845E-2,-1.395095E-1,-3.6301773E-2,4.7562286E-2,3.2654905E-1,-8.341868E-2,4.7467116E-2,4.1336928E-2,-8.8609695E-2,2.1670513E-1,6.127698E-2,1.6074364E-1,-7.8079164E-2],"categories":[],"categories_nodes":[],"categories_segments":[],"categories_sizes":[],"default_left":[0,0,0,0,0,0,0,0,0,0,0,0,0,0,0,0,0,0,0,0,0,0,0,0,0,0,0,0,0,0,0,0,0,0,0,0,0,0,0,0,0,0,0,0,0,0,0,0,0,0,0,0,0,0,0,0,0,0,0,0,0,0,0,0,0,0,0,0,0,0,0,0,0,0,0,0,0,0,0,0,0,0,0,0,0,0,0,0,0,0,0],"id":12,"left_children":[1,3,-1,5,7,9,-1,11,13,-1,15,17,19,21,-1,-1,-1,23,25,27,29,31,33,35,37,39,41,43,45,-1,47,49,51,53,55,57,59,-1,61,63,65,67,69,71,-1,73,-1,-1,75,77,79,81,83,85,87,89,-1,-1,-1,-1,-1,-1,-1,-1,-1,-1,-1,-1,-1,-1,-1,-1,-1,-1,-1,-1,-1,-1,-1,-1,-1,-1,-1,-1,-1,-1,-1,-1,-1,-1,-1],"loss_changes":[2.629613E2,2.0952194E2,0E0,1.5902939E1,5.148092E1,9.500172E0,0E0,2.3207966E1,2.7607798E1,0E0,2.2877653E0,2.5313927E1,7.58897E0,2.6115028E1,0E0,0E0,0E0,4.441868E0,3.133757E1,5.316271E0,5.1309586E-1,2.7333357E1,6.873722E0,2.9834023E1,8.9406204E-1,7.042589E0,1.6009155E1,4.328972E0,3.0913808E0,0E0,6.7204857E-1,3.475693E1,4.3411507E1,4.4840026E0,7.2716274E0,2.8061695E0,8.786583E-1,0E0,5.2623987E0,1.2713999E1,6.934891E-1,1.0775811E1,2.2147846E0,3.345316E0,0E0,6.1718225E-1,0E0,0E0,6.2264442E-2,5.731854E1,3.7976624E1,2.3200886E1,3.658113E1,3.9854505E0,2.0616412E0,5.889076E0,0E0,0E0,0E0,0E0,0E0,0E0,0E0,0E0,0E0,0E0,0E0,0E0,0E0,0E0,0E0,0E0,0E0,0E0,0E0,0E0,0E0,0E0,0E0,0E0,0E0,0E0,0E0,0E0,0E0,0E0,0E0,0E0,0E0,0E0,0E0],"parents":[2147483647,0,0,1,1,3,3,4,4,5,5,7,7,8,8,10,10,11,11,12,12,13,13,17,17,18,18,19,19,20,20,21,21,22,22,23,23,24,24,25,25,26,26,27,27,28,28,30,30,31,31,32,32,33,33,34,34,35,35,36,36,38,38,39,39,40,40,41,41,42,42,43,43,45,45,48,48,49,49,50,50,51,51,52,52,53,53,54,54,55,55],"right_children":[2,4,-1,6,8,10,-1,12,14,-1,16,18,20,22,-1,-1,-1,24,26,28,30,32,34,36,38,40,42,44,46,-1,48,50,52,54,56,58,60,-1,62,64,66,68,70,72,-1,74,-1,-1,76,78,80,82,84,86,88,90,-1,-1,-1,-1,-1,-1,-1,-1,-1,-1,-1,-1,-1,-1,-1,-1,-1,-1,-1,-1,-1,-1,-1,-1,-1,-1,-1,-1,-1,-1,-1,-1,-1,-1,-1],"split_conditions":[1E0,2E-1,2.1209724E-1,2E0,1.825E1,1E0,-2.07604E-1,2.1333334E1,1E0,-1.7968534E-1,1E0,1.8E1,3.5E1,1.48E2,2.0788483E-1,-1.4433001E-2,1.8542963E-1,3E0,5E-1,2.7E1,1E0,1.82E2,3.9E1,1.5E0,1E1,2E1,1E0,1.96E2,1E0,2.6835763E-1,4.3E1,1.4E2,2.93E2,1E0,1.293E3,2E0,1.1E1,1.8283057E-1,1.1E1,1.8E1,7.75E0,2E1,2.5454545E0,1.1E1,2.8251758E-1,1.55E1,1.0389679E-1,7.414123E-2,1.2E1,4.8E1,1.12E1,2.07E2,1.3214286E1,8.45E1,2E0,2.765E2,-1.336206E-1,1.9966644E-1,7.918993E-2,-3.306969E-1,-1.4399435E-1,2.7932048E-2,1.8485345E-1,-2.9249787E-1,1.8563494E-1,-1.2588114E-1,-2.9668206E-1,1.1877264E-2,-1.7796168E-1,1.8943237E-1,9.3109936E-2,1.4452617E-1,5.259796E-2,-2.9303147E-2,-1.5351336E-1,1.2351096E-1,2.2302842E-1,-7.51106E-2,8.944845E-2,-1.395095E-1,-3.6301773E-2,4.7562286E-2,3.2654905E-1,-8.341868E-2,4.7467116E-2,4.1336928E-2,-8.8609695E-2,2.1670513E-1,6.127698E-2,1.6074364E-1,-7.8079164E-2],"split_indices":[2,3,0,8,3,5,0,9,1,0,8,5,8,9,0,0,0,8,9,8,4,8,8,3,5,5,0,5,4,0,8,5,5,4,5,5,5,0,8,8,3,7,9,3,0,3,0,0,7,8,9,8,9,3,8,3,0,0,0,0,0,0,0,0,0,0,0,0,0,0,0,0,0,0,0,0,0,0,0,0,0,0,0,0,0,0,0,0,0,0,0],"split_type":[0,0,0,0,0,0,0,0,0,0,0,0,0,0,0,0,0,0,0,0,0,0,0,0,0,0,0,0,0,0,0,0,0,0,0,0,0,0,0,0,0,0,0,0,0,0,0,0,0,0,0,0,0,0,0,0,0,0,0,0,0,0,0,0,0,0,0,0,0,0,0,0,0,0,0,0,0,0,0,0,0,0,0,0,0,0,0,0,0,0,0],"sum_hessian":[2.737146E3,2.515435E3,2.2171089E2,2.3516354E2,2.2802715E3,1.5260476E1,2.1990308E2,5.0157043E2,1.7787012E3,5.8564553E0,9.40402E0,3.8555618E2,1.1601425E2,1.7571523E3,2.1548801E1,3.1490672E0,6.2549534E0,1.079234E2,2.7763278E2,8.418608E1,3.182817E1,1.6423347E3,1.1481769E2,4.380999E1,6.411341E1,2.4386332E1,2.5324644E2,7.367854E1,1.0507536E1,1.3027222E1,1.880095E1,1.2286652E3,4.136695E2,5.6766685E1,5.8051003E1,3.518643E1,8.623556E0,2.8442379E1,3.5671036E1,7.0131793E0,1.7373152E1,2.0116254E2,5.208392E1,6.801277E1,5.665773E0,6.7796364E0,3.7278998E0,3.8638427E0,1.4937105E1,3.424158E2,8.862494E2,4.7917076E1,3.6575244E2,3.649595E1,2.0270739E1,5.472698E1,3.3240237E0,1.9282143E1,1.5904291E1,3.5914316E0,5.032124E0,1.4637038E1,2.1033997E1,3.0340765E0,3.9791026E0,3.3355787E0,1.4037574E1,1.8940065E2,1.1761878E1,1.4742386E1,3.7341534E1,3.8920975E1,2.9091795E1,3.482438E0,3.2971983E0,5.3157916E0,9.621314E0,1.4904788E2,1.933679E2,1.7798177E2,7.0826764E2,2.2347664E1,2.5569412E1,1.338963E2,2.3185612E2,2.0802492E1,1.5693456E1,3.8737147E0,1.6397024E1,5.082263E1,3.904348E0],"tree_param":{"num_deleted":"0","num_feature":"10","num_nodes":"91","size_leaf_vector":"1"}},{"base_weights":[3.1155387E-3,-7.545932E-2,2.095238E-1,-9.449412E-1,1.4745404E-3,1.18754454E-1,-2.0562504E-1,4.3332404E-1,-4.8456274E-2,-1.7591235E-1,7.516122E-1,8.376939E-1,3.611198E-1,-6.19674E-2,2.0632868E-1,7.1038745E-2,1.7977726E-1,1.9599761E-1,6.605682E-1,-6.960456E-2,4.510616E-1,3.9494593E-2,-1.8984756E-1,3.4394679E-3,1.9055186E-1,-6.5821177E-1,1.3209859E-1,3.4221587E-1,7.670925E-1,-3.7611622E-2,4.0146878E-1,5.930234E-2,-2.8289485E-1,-2.202882E-1,2.0884844E-2,6.5511054E-1,-3.6591652E-1,1.916763E-1,6.763697E-1,8.97204E-1,3.5707867E-1,-1.0765609E-1,2.5814265E-1,2.4105477E-1,9.332366E-1,-4.533032E-2,1.633203E0,-4.5651886E-1,-2.2957202E-2,4.7734287E-2,1.8011692E-1,-1.5223144E-1,1.1573471E-1,1.14834644E-1,-5.679931E-3,1.777225E-1,8.629439E-2,1.9163525E-1,6.626534E-2,-3.5374902E-2,1.5036593E-1,4.5083366E-2,-3.289333E-2,-5.6705732E-2,9.3971245E-2,-1.3704626E-1,6.5216675E-2,1.33052E-1,2.7065164E-1,-1.3806114E-1,2.4866894E-2,3.6348894E-1,1.8555225E-1,-1.8834345E-1,-3.8886737E-2,2.6890308E-1,-2.7226547E-2],"categories":[],"categories_nodes":[],"categories_segments":[],"categories_sizes":[],"default_left":[0,0,0,0,0,0,0,0,0,0,0,0,0,0,0,0,0,0,0,0,0,0,0,0,0,0,0,0,0,0,0,0,0,0,0,0,0,0,0,0,0,0,0,0,0,0,0,0,0,0,0,0,0,0,0,0,0,0,0,0,0,0,0,0,0,0,0,0,0,0,0,0,0,0,0,0,0],"id":13,"left_children":[1,3,-1,5,7,9,-1,11,13,-1,15,17,19,21,-1,-1,-1,-1,23,25,27,29,31,-1,-1,33,35,37,39,41,43,45,47,-1,-1,49,51,53,55,57,59,61,63,65,67,69,71,73,75,-1,-1,-1,-1,-1,-1,-1,-1,-1,-1,-1,-1,-1,-1,-1,-1,-1,-1,-1,-1,-1,-1,-1,-1,-1,-1,-1,-1],"loss_changes":[2.1459444E2,1.6267216E2,0E0,1.7613602E1,4.821635E1,1.0286169E1,0E0,6.463829E0,2.9314722E1,0E0,2.5655222E-1,2.1849251E-1,7.7171535E0,2.5705357E1,0E0,0E0,0E0,0E0,3.4372482E0,4.2585983E0,5.3876457E0,3.0861328E1,2.0333773E1,0E0,0E0,3.2028267E0,7.2729926E0,6.1070404E0,1.8814793E0,1.8921144E1,1.6337942E1,3.9453613E1,2.8795086E1,0E0,0E0,1.168067E0,5.8439655E0,7.3288703E0,1.5975437E0,7.407379E-1,2.5787685E0,1.4003226E1,2.0194174E1,1.2078175E1,4.125332E0,2.4728579E1,2.5473022E-1,4.8470757E1,3.990337E1,0E0,0E0,0E0,0E0,0E0,0E0,0E0,0E0,0E0,0E0,0E0,0E0,0E0,0E0,0E0,0E0,0E0,0E0,0E0,0E0,0E0,0E0,0E0,0E0,0E0,0E0,0E0,0E0],"parents":[2147483647,0,0,1,1,3,3,4,4,5,5,7,7,8,8,10,10,11,11,12,12,13,13,18,18,19,19,20,20,21,21,22,22,25,25,26,26,27,27,28,28,29,29,30,30,31,31,32,32,35,35,36,36,37,37,38,38,39,39,40,40,41,41,42,42,43,43,44,44,45,45,46,46,47,47,48,48],"right_children":[2,4,-1,6,8,10,-1,12,14,-1,16,18,20,22,-1,-1,-1,-1,24,26,28,30,32,-1,-1,34,36,38,40,42,44,46,48,-1,-1,50,52,54,56,58,60,62,64,66,68,70,72,74,76,-1,-1,-1,-1,-1,-1,-1,-1,-1,-1,-1,-1,-1,-1,-1,-1,-1,-1,-1,-1,-1,-1,-1,-1,-1,-1,-1,-1],"split_conditions":[1E0,2E-1,2.095238E-1,2E0,9.2E0,1E0,-2.0562504E-1,5E0,1E0,-1.7591235E-1,1E0,2E0,1.1666666E0,5.3666668E1,2.0632868E-1,7.1038745E-2,1.7977726E-1,1.9599761E-1,2E0,5E0,2.2E1,5.64E2,2.21E2,3.4394679E-3,1.9055186E-1,2.5E-1,1.1E1,1.596875E1,1.08E2,1.08E2,4.025E1,1.82E2,2.23E2,-2.202882E-1,2.0884844E-2,7E0,1E0,3.2E0,5E0,2.8368422E1,3.8E1,4.3E1,5.8333335E0,1.12E1,1E0,5.5E1,2.03E2,3.807143E1,3.16E2,4.7734287E-2,1.8011692E-1,-1.5223144E-1,1.1573471E-1,1.14834644E-1,-5.679931E-3,1.777225E-1,8.629439E-2,1.9163525E-1,6.626534E-2,-3.5374902E-2,1.5036593E-1,4.5083366E-2,-3.289333E-2,-5.6705732E-2,9.3971245E-2,-1.3704626E-1,6.5216675E-2,1.33052E-1,2.7065164E-1,-1.3806114E-1,2.4866894E-2,3.6348894E-1,1.8555225E-1,-1.8834345E-1,-3.8886737E-2,2.6890308E-1,-2.7226547E-2],"split_indices":[2,3,0,8,3,5,0,5,1,0,8,5,9,3,0,0,0,0,8,8,8,5,5,0,0,9,5,9,5,8,9,8,8,0,0,8,0,3,8,9,8,5,9,9,4,8,3,9,5,0,0,0,0,0,0,0,0,0,0,0,0,0,0,0,0,0,0,0,0,0,0,0,0,0,0,0,0],"split_type":[0,0,0,0,0,0,0,0,0,0,0,0,0,0,0,0,0,0,0,0,0,0,0,0,0,0,0,0,0,0,0,0,0,0,0,0,0,0,0,0,0,0,0,0,0,0,0,0,0,0,0,0,0,0,0,0,0,0,0,0,0,0,0,0,0,0,0,0,0,0,0,0,0,0,0,0,0],"sum_hessian":[2.6127559E3,2.4308203E3,1.8193555E2,1.966835E2,2.2341367E3,1.423457E1,1.8244893E2,2.30746E2,2.0033907E3,5.3714404E0,8.863129E0,3.335335E1,1.9739264E2,1.9795707E3,2.3820108E1,3.325E0,5.5381293E0,1.5981712E1,1.737164E1,3.4137398E1,1.6325525E2,1.1041852E3,8.753855E2,5.756142E0,1.1615498E1,8.13492E0,2.6002476E1,1.2298146E2,4.027379E1,9.110197E2,1.9316548E2,2.3812582E2,6.372597E2,4.863875E0,3.2710457E0,1.252908E1,1.3473396E1,8.5869865E1,3.711159E1,2.9670193E1,1.0603597E1,7.3708856E2,1.7393114E2,1.4951564E2,4.364984E1,2.2419273E2,1.3933098E1,3.8160938E2,2.5565031E2,5.3779097E0,7.1511707E0,9.635746E0,3.8376503E0,3.0774364E1,5.5095505E1,1.8473164E1,1.863843E1,2.6158413E1,3.511781E0,4.7417216E0,5.861875E0,1.0696992E2,6.3011865E2,4.8782192E1,1.2514895E2,1.197738E1,1.3753825E2,2.8225594E1,1.5424249E1,4.6053432E1,1.781393E2,9.797852E0,4.135246E0,1.329275E2,2.4868187E2,1.8709387E1,2.3694092E2],"tree_param":{"num_deleted":"0","num_feature":"10","num_nodes":"77","size_leaf_vector":"1"}},{"base_weights":[-1.9258165E-4,-6.637088E-2,2.07369E-1,-9.349037E-1,-1.6937573E-3,1.470276E-1,-2.0418413E-1,1.768843E-1,-1.02992356E-1,-1.6861749E-1,1.5022017E-1,1.5155408E-1,2.0620206E-1,-1.5739919E-1,2.161973E-1,1.0263123E-1,5.178713E-1,3.591714E-1,-1.917474E-1,2.8624082E-1,-2.6307517E-1,3.7824196E-1,6.3953158E-3,1.088327E0,3.4621346E-1,-2.1314435E-1,6.987646E-1,-4.2384607E-1,-7.481016E-2,1.6758479E-1,8.0676806E-1,-6.140145E-1,2.5225928E-1,2.6696372E-1,7.051137E-1,-2.834159E-1,5.9910037E-2,1.3555356E0,-4.339178E-2,-6.1450057E-2,4.88737E-1,4.0599874E-1,1.1721101E0,-7.2700167E-1,-1.4075455E-1,9.2994416E-1,-1.2281806E-1,-3.4321517E-2,6.5277785E-1,1.2331498E0,2.267523E-1,-8.6567235E-1,3.2952677E-2,-2.7235532E-1,1.8517804E-1,7.3882006E-2,-2.5014552E-1,1.8666448E-1,7.749287E-2,-2.1603143E-2,4.65909E-2,1.1744143E-1,3.113398E-1,1.8037258E-1,-6.355336E-2,1.6605398E-1,5.7162095E-2,1.4549826E-1,-2.1736372E-1,2.565389E-1,1.4757226E-1,-2.5857205E-2,-1.7466754E-1,9.8698E-3,-9.493881E-2,-3.6666803E-3,2.0445922E-1,-8.998277E-2,-1.2887189E-2,1.257182E-1,-2.6896505E-2,1.792346E-1,5.427901E-2,3.1901696E-1,9.4660394E-2,2.0429848E-1,-2.2068134E-2,-8.292821E-2,-1.9758298E-1,-9.648626E-3,-8.821034E-2],"categories":[],"categories_nodes":[],"categories_segments":[],"categories_sizes":[],"default_left":[0,0,0,0,0,0,0,0,0,0,0,0,0,0,0,0,0,0,0,0,0,0,0,0,0,0,0,0,0,0,0,0,0,0,0,0,0,0,0,0,0,0,0,0,0,0,0,0,0,0,0,0,0,0,0,0,0,0,0,0,0,0,0,0,0,0,0,0,0,0,0,0,0,0,0,0,0,0,0,0,0,0,0,0,0,0,0,0,0,0,0],"id":14,"left_children":[1,3,-1,5,7,9,-1,11,13,-1,-1,15,-1,17,19,21,23,25,27,29,31,33,35,37,39,-1,41,43,45,47,49,51,53,55,57,-1,59,61,-1,63,65,67,69,71,73,75,77,79,81,83,85,87,-1,89,-1,-1,-1,-1,-1,-1,-1,-1,-1,-1,-1,-1,-1,-1,-1,-1,-1,-1,-1,-1,-1,-1,-1,-1,-1,-1,-1,-1,-1,-1,-1,-1,-1,-1,-1,-1,-1],"loss_changes":[1.7215675E2,1.3245831E2,0E0,1.5358978E1,3.9735912E1,8.354679E0,0E0,1.7044643E1,2.4373558E1,0E0,0E0,1.3805662E1,0E0,2.132574E1,6.9413443E0,1.8125235E1,8.520855E0,3.705605E1,3.0474289E1,1.0916102E1,4.965664E0,6.244957E0,3.8751392E1,7.4619713E0,4.1734056E0,0E0,8.00559E0,3.219657E1,3.6225246E1,1.4420617E1,7.870075E0,3.3010588E0,4.3109736E0,2.122735E1,2.8503723E0,0E0,1.4268441E1,1.7438335E0,0E0,5.0671906E0,3.4325228E0,1.967323E1,1.512394E-1,1.5762062E1,1.2457019E1,3.0186787E0,1.3632193E1,7.038802E0,3.770523E0,4.406204E0,4.181277E0,2.7071953E-1,0E0,2.5204432E-1,0E0,0E0,0E0,0E0,0E0,0E0,0E0,0E0,0E0,0E0,0E0,0E0,0E0,0E0,0E0,0E0,0E0,0E0,0E0,0E0,0E0,0E0,0E0,0E0,0E0,0E0,0E0,0E0,0E0,0E0,0E0,0E0,0E0,0E0,0E0,0E0,0E0],"parents":[2147483647,0,0,1,1,3,3,4,4,5,5,7,7,8,8,11,11,13,13,14,14,15,15,16,16,17,17,18,18,19,19,20,20,21,21,22,22,23,23,24,24,26,26,27,27,28,28,29,29,30,30,31,31,32,32,33,33,34,34,36,36,37,37,39,39,40,40,41,41,42,42,43,43,44,44,45,45,46,46,47,47,48,48,49,49,50,50,51,51,53,53],"right_children":[2,4,-1,6,8,10,-1,12,14,-1,-1,16,-1,18,20,22,24,26,28,30,32,34,36,38,40,-1,42,44,46,48,50,52,54,56,58,-1,60,62,-1,64,66,68,70,72,74,76,78,80,82,84,86,88,-1,90,-1,-1,-1,-1,-1,-1,-1,-1,-1,-1,-1,-1,-1,-1,-1,-1,-1,-1,-1,-1,-1,-1,-1,-1,-1,-1,-1,-1,-1,-1,-1,-1,-1,-1,-1,-1,-1],"split_conditions":[1E0,2E-1,2.07369E-1,2E0,2.95E1,1E0,-2.0418413E-1,1E0,9.5454544E1,-1.6861749E-1,1.5022017E-1,4.49E2,2.0620206E-1,6.9E1,1.8566667E2,3.5E1,1.2E1,3.1E1,8.6E1,5.86E2,2.83E2,1.8E1,3.3333334E-1,1E0,1.3666667E1,-2.1314435E-1,5.2E1,3.5E1,1.14E2,2.0433333E2,1E1,1E1,1.6566667E2,1.6333334E1,2.7E1,-2.834159E-1,4E1,1.1E1,-4.339178E-2,3.4E1,2.2E1,5.2E1,6.5E1,8.7E1,5.8333332E1,3.55E1,1.13E2,4E1,2.58E2,1.25333336E2,6.8E2,1.7E1,3.2952677E-2,3.7E2,1.8517804E-1,7.3882006E-2,-2.5014552E-1,1.8666448E-1,7.749287E-2,-2.1603143E-2,4.65909E-2,1.1744143E-1,3.113398E-1,1.8037258E-1,-6.355336E-2,1.6605398E-1,5.7162095E-2,1.4549826E-1,-2.1736372E-1,2.565389E-1,1.4757226E-1,-2.5857205E-2,-1.7466754E-1,9.8698E-3,-9.493881E-2,-3.6666803E-3,2.0445922E-1,-8.998277E-2,-1.2887189E-2,1.257182E-1,-2.6896505E-2,1.792346E-1,5.427901E-2,3.1901696E-1,9.4660394E-2,2.0429848E-1,-2.2068134E-2,-8.292821E-2,-1.9758298E-1,-9.648626E-3,-8.821034E-2],"split_indices":[2,3,0,8,3,5,0,1,9,0,0,5,0,5,3,5,7,8,8,5,8,8,9,0,9,0,8,9,5,9,7,7,9,3,5,0,8,9,0,8,9,5,5,5,3,3,8,3,5,3,5,8,0,8,0,0,0,0,0,0,0,0,0,0,0,0,0,0,0,0,0,0,0,0,0,0,0,0,0,0,0,0,0,0,0,0,0,0,0,0,0],"split_type":[0,0,0,0,0,0,0,0,0,0,0,0,0,0,0,0,0,0,0,0,0,0,0,0,0,0,0,0,0,0,0,0,0,0,0,0,0,0,0,0,0,0,0,0,0,0,0,0,0,0,0,0,0,0,0,0,0,0,0,0,0,0,0,0,0,0,0,0,0,0,0,0,0,0,0,0,0,0,0,0,0,0,0,0,0,0,0,0,0,0,0],"sum_hessian":[2.5064966E3,2.3570198E3,1.4947665E2,1.6242331E2,2.1945964E3,1.1909898E1,1.5051341E2,7.9404254E2,1.400554E3,4.3629956E0,7.546902E0,7.723159E2,2.1726591E1,1.1970244E3,2.0352956E2,6.824524E2,8.986353E1,7.404144E1,1.122983E3,1.7792882E2,2.5600733E1,1.7586398E2,5.0658844E2,1.955107E1,7.031247E1,1.38385E1,6.020294E1,3.7535284E2,7.476301E2,1.459752E2,3.195361E1,1.5115614E1,1.048512E1,1.3255461E2,4.330936E1,1.7431654E1,4.8915677E2,1.6196867E1,3.3542008E0,1.8361492E1,5.1950974E1,3.8344467E1,2.1858475E1,1.8049606E2,1.9485678E2,3.3255577E1,7.143746E2,1.0373613E2,4.223908E1,1.7766802E1,1.4186808E1,1.133968E1,3.775934E0,6.229421E0,4.255698E0,1.2488154E2,7.6730804E0,2.4074976E1,1.9234386E1,2.4844075E2,2.4071602E2,4.1739254E0,1.2022943E1,3.329545E0,1.5031946E1,1.8210516E1,3.374046E1,3.1971724E1,6.372745E0,1.5864615E1,5.9938583E0,3.586942E1,1.4462665E2,1.2471297E2,7.0143814E1,3.0224333E0,3.0233145E1,1.0717908E2,6.071955E2,1.2923898E1,9.081223E1,2.496002E1,1.7279058E1,1.128991E1,6.4768906E0,3.6205637E0,1.0566244E1,3.354548E0,7.985132E0,3.227578E0,3.0018435E0],"tree_param":{"num_deleted":"0","num_feature":"10","num_nodes":"91","size_leaf_vector":"1"}},{"base_weights":[4.7958954E-3,-5.1305942E-2,2.0560896E-1,-9.357439E-1,3.7587292E-3,-1.0939564E-2,-2.0221078E-1,-1.03296945E-2,2.0596273E-1,-1.6330886E-1,1.0467034E-1,5.1514775E-2,-2.0948417E-1,-4.7955476E-2,1.820978E-1,-5.7184005E-1,-1.1300212E-1,-2.2367539E-1,3.4771927E-2,1.3911164E-1,7.7795106E-1,-2.1956436E-1,-2.2111581E-1,1.779437E-1,-3.2750118E-1,-8.148484E-2,-5.5248183E-1,1.5691335E-1,-1.0315002E-1,1.108634E-1,6.034265E-1,3.8938552E-1,9.046322E-1,-2.782441E-1,1.0175108E-1,8.5834086E-2,1.8512493E0,-5.156065E-1,5.904535E-2,-3.1559814E-2,1.8363674E-1,-1.9396468E-1,-5.05954E-3,2.297485E-2,2.3255043E-1,-4.757995E-2,2.929253E-2,1.0015806E-1,1.519069E-2,1.5806657E-1,-3.242595E-2,1.3866973E-1,1.337452E-2,2.9392183E-2,1.982286E-1,-3.7452754E-2,-1.814963E-1,4.6982862E-2,-1.0854521E-1,5.040965E-1,1.5208833E-1,-1.6145015E-1,-8.4423935E-3,2.7420837E-1,-1.6840538E-2],"categories":[],"categories_nodes":[],"categories_segments":[],"categories_sizes":[],"default_left":[0,0,0,0,0,0,0,0,0,0,0,0,0,0,0,0,0,0,0,0,0,0,0,0,0,0,0,0,0,0,0,0,0,0,0,0,0,0,0,0,0,0,0,0,0,0,0,0,0,0,0,0,0,0,0,0,0,0,0,0,0,0,0,0,0],"id":15,"left_children":[1,3,-1,5,7,9,-1,11,-1,-1,-1,13,15,17,19,21,23,25,27,29,31,-1,33,35,37,39,41,43,45,47,49,51,53,55,-1,57,59,61,63,-1,-1,-1,-1,-1,-1,-1,-1,-1,-1,-1,-1,-1,-1,-1,-1,-1,-1,-1,-1,-1,-1,-1,-1,-1,-1],"loss_changes":[1.3828804E2,